{"learner":{"attributes":{"best_iteration":"74","best_score":"41.11979583623095"},"feature_names":["trend_slope_20","obv","volume_lag_1","price_change_pct","bb_width","return_5","atr_14","open","ichimoku_price_above_cloud","atr_pct","price_change","volume_std_20","vol_percentile","close_skew_20","return_10","volume","high_low_range","roc_10","trend_slope_norm","volume_sma_20","stoch_k","return_3","rsi_lag_10","return_1","close_lag_1","ema_12","sma_7","trend_r_squared","stoch_d","sma_50","macd_signal","bb_lower","close_autocorr_5","sma_20","return_mean_5","close_kurt_20","vwap_distance","macd","close_zscore","regime_volatility","high","ema_9","macd_histogram","volume_zscore","bb_middle","bb_upper","ema_26","cci_20","mfi","volume_lag_5"],"feature_types":["float","float","float","float","float","float","float","float","int","float","float","float","float","float","float","float","float","float","float","float","float","float","float","float","float","float","float","float","float","float","float","float","float","float","float","float","float","float","float","int","float","float","float","float","float","float","float","float","float","float"],"gradient_booster":{"model":{"gbtree_model_param":{"num_parallel_tree":"1","num_trees":"125"},"iteration_indptr":[0,1,2,3,4,5,6,7,8,9,10,11,12,13,14,15,16,17,18,19,20,21,22,23,24,25,26,27,28,29,30,31,32,33,34,35,36,37,38,39,40,41,42,43,44,45,46,47,48,49,50,51,52,53,54,55,56,57,58,59,60,61,62,63,64,65,66,67,68,69,70,71,72,73,74,75,76,77,78,79,80,81,82,83,84,85,86,87,88,89,90,91,92,93,94,95,96,97,98,99,100,101,102,103,104,105,106,107,108,109,110,111,112,113,114,115,116,117,118,119,120,121,122,123,124,125],"tree_info":[0,0,0,0,0,0,0,0,0,0,0,0,0,0,0,0,0,0,0,0,0,0,0,0,0,0,0,0,0,0,0,0,0,0,0,0,0,0,0,0,0,0,0,0,0,0,0,0,0,0,0,0,0,0,0,0,0,0,0,0,0,0,0,0,0,0,0,0,0,0,0,0,0,0,0,0,0,0,0,0,0,0,0,0,0,0,0,0,0,0,0,0,0,0,0,0,0,0,0,0,0,0,0,0,0,0,0,0,0,0,0,0,0,0,0,0,0,0,0,0,0,0,0,0,0],"trees":[{"base_weights":[-4.0288646E-2,2.50987E1,-1.250248E1,3.1415384E1,2.2745245E1,-9.358679E0,-7.845648E-1,2.8322485E1,3.8904274E1,1.3136248E1,2.6850939E1,2.1217424E1,-9.424876E0,3.0360538E1,2.3308374E1,4.1596058E1,1.979081E1,1.7360018E1,1.0483586E1,3.479985E1,2.4628435E1,-4.359596E0,5.0766846E1,-1.0304359E1,-8.50411E0,2.8315203E1,3.836151E1,1.4896788E1,2.833781E1,3.8720154E1,6.638577E1,1.3450163E1,8.945894E1,8.8431015E0,1.9089987E1,1.8931852E1,9.30785E0,1.3596894E1,3.616874E1,1.8432682E1,2.5830055E1,1.1185478E0,-5.84632E-1,-5.137116E-1,6.835753E1,2.2594381E1,-1.034048E1,-6.9297643E0,-8.753495E0,4.9616262E-1,1.4605652E0,4.1818377E-1,2.057587E0,2.2785864E0,6.204676E-1,2.4208632E0,1.2703778E0,3.626866E0,1.8493636E0,3.8062189E0,4.357856E-1,3.721441E-1,3.0055723E0,6.2476363E0,1.0927925E0,3.503453E-1,2.5323133E0,8.070475E-1,1.5211196E0,8.545824E-1,2.8020513E0,4.2912722E-1,9.121653E-1,-3.523655E-1,1.3088917E0,2.1070673E0,1.5695051E0,3.715427E-1,1.0232978E0,1.0969121E0,1.3729289E0,8.179709E-1,4.7859693E0,2.849943E0,-4.714037E-1,-2.6289603E-1,-5.1826185E-1,-3.5606062E-1,2.99427E-1,-2.9915768E-1,-4.433282E-1],"categories":[],"categories_nodes":[],"categories_segments":[],"categories_sizes":[],"default_left":[0,0,0,0,0,0,0,0,0,0,0,0,0,0,0,0,0,0,0,0,0,0,0,0,0,0,0,0,0,0,0,0,0,0,0,0,0,0,0,0,0,0,0,0,0,0,0,0,0,0,0,0,0,0,0,0,0,0,0,0,0,0,0,0,0,0,0,0,0,0,0,0,0,0,0,0,0,0,0,0,0,0,0,0,0,0,0,0,0,0,0],"id":0,"left_children":[1,3,5,7,9,11,-1,13,15,17,19,21,23,25,27,29,31,33,35,37,39,41,43,45,47,49,51,53,55,57,59,61,63,65,67,69,71,73,75,77,79,-1,-1,-1,81,83,85,87,89,-1,-1,-1,-1,-1,-1,-1,-1,-1,-1,-1,-1,-1,-1,-1,-1,-1,-1,-1,-1,-1,-1,-1,-1,-1,-1,-1,-1,-1,-1,-1,-1,-1,-1,-1,-1,-1,-1,-1,-1,-1,-1],"loss_changes":[1.278931E7,2.00418E5,2.734625E5,8.389725E4,3.88675E5,2.8021375E4,0E0,2.5866625E4,5.4221375E4,3.2912562E4,1.21177E5,2.2899549E4,1.10185E4,2.91165E4,3.1556531E4,6.422025E4,5.797977E4,1.6595688E4,1.7869094E4,4.3243125E4,3.973725E4,3.5927847E3,1.5740684E4,8.563625E3,2.5710312E3,2.399925E4,3.0871188E4,2.1174742E4,2.6533938E4,4.664825E4,5.3244094E4,3.430397E4,2.3648758E4,1.453056E4,3.1085906E4,1.4126609E4,1.0190797E4,2.4340682E4,3.9055125E4,1.9552875E4,2.80525E4,0E0,0E0,0E0,1.4073293E4,9.355871E3,8.251875E2,2.323039E3,1.7579062E3,0E0,0E0,0E0,0E0,0E0,0E0,0E0,0E0,0E0,0E0,0E0,0E0,0E0,0E0,0E0,0E0,0E0,0E0,0E0,0E0,0E0,0E0,0E0,0E0,0E0,0E0,0E0,0E0,0E0,0E0,0E0,0E0,0E0,0E0,0E0,0E0,0E0,0E0,0E0,0E0,0E0,0E0],"parents":[2147483647,0,0,1,1,2,2,3,3,4,4,5,5,7,7,8,8,9,9,10,10,11,11,12,12,13,13,14,14,15,15,16,16,17,17,18,18,19,19,20,20,21,21,22,22,23,23,24,24,25,25,26,26,27,27,28,28,29,29,30,30,31,31,32,32,33,33,34,34,35,35,36,36,37,37,38,38,39,39,40,40,44,44,45,45,46,46,47,47,48,48],"right_children":[2,4,6,8,10,12,-1,14,16,18,20,22,24,26,28,30,32,34,36,38,40,42,44,46,48,50,52,54,56,58,60,62,64,66,68,70,72,74,76,78,80,-1,-1,-1,82,84,86,88,90,-1,-1,-1,-1,-1,-1,-1,-1,-1,-1,-1,-1,-1,-1,-1,-1,-1,-1,-1,-1,-1,-1,-1,-1,-1,-1,-1,-1,-1,-1,-1,-1,-1,-1,-1,-1,-1,-1,-1,-1,-1,-1],"split_conditions":[7.3869E2,2.537E2,1E0,-9.4267493E-1,-9.400895E-1,7.35796E2,-7.845648E-1,6.5789474E1,1.2362363E2,7.7273E1,4.0831137E2,1.5770893E4,2.2804238E3,5.4347828E1,4.9407986E1,6.420181E1,9.760195E1,-1.27427986E2,2.564176E3,1.4182358E1,-7.54987E-1,4.8E0,4.9848022E1,-9.924511E-1,-6.7558783E-1,5.3708535E3,-9.9212974E-1,5.6166294E1,5.1013863E1,-5.69951E2,-7.035647E-3,3.0879984E2,3.9742687E-1,7.326519E4,6.582879E-1,1.4E0,-7.362286E-1,7.681565E3,-8.7495136E-1,3.40045E3,6.953083E3,1.1185478E0,-5.84632E-1,-5.137116E-1,5.6140293E1,-1.6895438E0,-3.1196433E-1,7.7139824E1,-9.6039236E-1,4.9616262E-1,1.4605652E0,4.1818377E-1,2.057587E0,2.2785864E0,6.204676E-1,2.4208632E0,1.2703778E0,3.626866E0,1.8493636E0,3.8062189E0,4.357856E-1,3.721441E-1,3.0055723E0,6.2476363E0,1.0927925E0,3.503453E-1,2.5323133E0,8.070475E-1,1.5211196E0,8.545824E-1,2.8020513E0,4.2912722E-1,9.121653E-1,-3.523655E-1,1.3088917E0,2.1070673E0,1.5695051E0,3.715427E-1,1.0232978E0,1.0969121E0,1.3729289E0,8.179709E-1,4.7859693E0,2.849943E0,-4.714037E-1,-2.6289603E-1,-5.1826185E-1,-3.5606062E-1,2.99427E-1,-2.9915768E-1,-4.433282E-1],"split_indices":[7,7,8,36,36,29,0,20,47,48,46,49,46,20,22,22,20,47,2,20,38,16,20,14,38,19,5,48,22,0,14,0,30,2,43,10,38,49,5,24,15,0,0,0,22,37,18,22,21,0,0,0,0,0,0,0,0,0,0,0,0,0,0,0,0,0,0,0,0,0,0,0,0,0,0,0,0,0,0,0,0,0,0,0,0,0,0,0,0,0,0],"split_type":[0,0,0,0,0,0,0,0,0,0,0,0,0,0,0,0,0,0,0,0,0,0,0,0,0,0,0,0,0,0,0,0,0,0,0,0,0,0,0,0,0,0,0,0,0,0,0,0,0,0,0,0,0,0,0,0,0,0,0,0,0,0,0,0,0,0,0,0,0,0,0,0,0,0,0,0,0,0,0,0,0,0,0,0,0,0,0,0,0,0,0],"sum_hessian":[4.0821E4,1.3529E4,2.7292E4,3.669E3,9.86E3,1.3745E4,1.3547E4,2.6E3,1.069E3,2.953E3,6.907E3,2.9E1,1.3716E4,1.845E3,7.55E2,9.36E2,1.33E2,1.137E3,1.816E3,1.506E3,5.401E3,1.6E1,1.3E1,7.01E3,6.706E3,1.473E3,3.72E2,2.84E2,4.71E2,8.41E2,9.5E1,1.23E2,1E1,1.93E2,9.44E2,2.2E2,1.596E3,9.2E1,1.414E3,8.8E2,4.521E3,3E0,1.3E1,3E0,1E1,7E0,7.003E3,9.21E2,5.785E3,6.9E1,1.404E3,3.2E1,3.4E2,2E1,2.64E2,5.8E1,4.13E2,3.9E1,8.02E2,8.1E1,1.4E1,1.1E2,1.3E1,6E0,4E0,1.86E2,7E0,7.51E2,1.93E2,2.11E2,9E0,1.478E3,1.18E2,3.5E1,5.7E1,6.25E2,7.89E2,1.38E2,7.42E2,1.338E3,3.183E3,4E0,6E0,3E0,4E0,3.5E1,6.968E3,9.08E2,1.3E1,2.29E2,5.556E3],"tree_param":{"num_deleted":"0","num_feature":"50","num_nodes":"91","size_leaf_vector":"1"}},{"base_weights":[-1.32911205E-2,2.4009525E1,-1.1901985E1,3.013911E1,2.142335E1,-8.901506E0,-7.4548495E-1,2.5832237E1,3.7944496E1,1.30086565E1,2.5086267E1,1.8218102E1,-8.984119E0,2.6746336E1,1.1269372E1,3.8564194E1,-5.4067183E0,1.745892E1,1.0297143E1,3.1109917E1,2.36327E1,3.291721E1,-5.32866E0,-9.795504E0,-8.137476E0,1.2054867E1,2.7534021E1,2.8541689E1,6.5429025E0,4.217918E1,3.0046368E1,-6.290949E-1,1.4104136E0,1.156152E1,2.0260563E1,1.5933632E1,8.614937E0,3.4398506E1,2.120872E1,2.2776865E1,2.991856E1,2.190065E1,4.400407E0,-6.4311713E-1,1.1173195E0,-9.271143E0,-1.0045192E1,-6.9752173E0,-8.695584E0,2.1129825E0,3.477704E-1,1.4953902E0,1.0977148E0,1.8448119E-1,2.0397732E0,2.2541359E-1,1.9800657E0,2.634872E0,1.9120009E0,3.250141E0,1.3749286E0,4.895734E-1,1.6349013E0,8.6530894E-1,1.3177656E0,3.77141E-2,8.9873296E-1,3.547227E-1,7.6133966E-1,5.518132E-1,1.7952967E0,1.3928895E0,2.1963306E-1,1.3379105E0,1.0797813E0,1.1456958E0,1.9324368E0,2.202317E0,-5.641687E-1,-3.93871E-1,-4.7860742E-1,-5.0647604E-1,-4.333565E-1,-3.5293263E-1,5.742232E-2,-3.2736436E-1,-4.3918037E-1],"categories":[],"categories_nodes":[],"categories_segments":[],"categories_sizes":[],"default_left":[0,0,0,0,0,0,0,0,0,0,0,0,0,0,0,0,0,0,0,0,0,0,0,0,0,0,0,0,0,0,0,0,0,0,0,0,0,0,0,0,0,0,0,0,0,0,0,0,0,0,0,0,0,0,0,0,0,0,0,0,0,0,0,0,0,0,0,0,0,0,0,0,0,0,0,0,0,0,0,0,0,0,0,0,0,0,0],"id":1,"left_children":[1,3,5,7,9,11,-1,13,15,17,19,21,23,25,27,29,31,33,35,37,39,41,43,45,47,49,51,53,55,57,59,-1,-1,61,63,65,67,69,71,73,75,77,-1,-1,-1,79,81,83,85,-1,-1,-1,-1,-1,-1,-1,-1,-1,-1,-1,-1,-1,-1,-1,-1,-1,-1,-1,-1,-1,-1,-1,-1,-1,-1,-1,-1,-1,-1,-1,-1,-1,-1,-1,-1,-1,-1],"loss_changes":[1.1700742E7,2.143525E5,2.471925E5,1.3422E5,2.937765E5,3.090575E4,0E0,3.4239E4,3.85745E4,3.4763344E4,5.7459E4,1.4715055E4,9.316625E3,2.7912E4,1.2463494E4,4.208025E4,5.418416E3,1.7854625E4,1.694636E4,4.1236E4,2.814275E4,1.3841297E4,3.8308936E3,8.189375E2,4.2845E3,1.9108682E4,3.001375E4,9.894578E3,8.0902393E3,3.882875E4,3.5876438E4,0E0,0E0,1.2957109E4,1.2882125E4,1.2779914E4,1.3863711E4,3.3618625E4,3.6101234E4,2.161975E4,3.818425E4,1.7402574E4,0E0,0E0,0E0,8.730781E2,4.5853125E2,1.4856172E3,7.9621875E2,0E0,0E0,0E0,0E0,0E0,0E0,0E0,0E0,0E0,0E0,0E0,0E0,0E0,0E0,0E0,0E0,0E0,0E0,0E0,0E0,0E0,0E0,0E0,0E0,0E0,0E0,0E0,0E0,0E0,0E0,0E0,0E0,0E0,0E0,0E0,0E0,0E0,0E0],"parents":[2147483647,0,0,1,1,2,2,3,3,4,4,5,5,7,7,8,8,9,9,10,10,11,11,12,12,13,13,14,14,15,15,16,16,17,17,18,18,19,19,20,20,21,21,22,22,23,23,24,24,25,25,26,26,27,27,28,28,29,29,30,30,33,33,34,34,35,35,36,36,37,37,38,38,39,39,40,40,41,41,45,45,46,46,47,47,48,48],"right_children":[2,4,6,8,10,12,-1,14,16,18,20,22,24,26,28,30,32,34,36,38,40,42,44,46,48,50,52,54,56,58,60,-1,-1,62,64,66,68,70,72,74,76,78,-1,-1,-1,80,82,84,86,-1,-1,-1,-1,-1,-1,-1,-1,-1,-1,-1,-1,-1,-1,-1,-1,-1,-1,-1,-1,-1,-1,-1,-1,-1,-1,-1,-1,-1,-1,-1,-1,-1,-1,-1,-1,-1,-1],"split_conditions":[7.375005E2,2.71305E2,1E0,1.5410995E6,2.143722E6,-7.133846E-1,-7.4548495E-1,2.537E2,7.8322685E1,7.672436E1,4.0831137E2,9.56596E-3,2.2804238E3,1.0915328E1,-4.2707792E-1,-7.035647E-3,2.925076E-3,3.098E2,5.763449E3,2.371717E4,6.198955E2,9.237336E4,5.5293097E0,-7.7408906E5,-1.0254494E6,3.0725065E-3,6.6129036E1,1.8539207E4,2.8876365E4,-9.9309516E-1,-2.8003252E-1,-6.290949E-1,1.4104136E0,8.712575E1,4.526008E-1,1.9484573E1,-7.391365E-1,1.3101899E1,1.3539948E0,-9.9095905E-1,4.6996188E-1,3.94408E0,4.400407E0,-6.4311713E-1,1.1173195E0,-4.6142894E-1,3.5830117E4,3.402941E3,-9.520541E-1,2.1129825E0,3.477704E-1,1.4953902E0,1.0977148E0,1.8448119E-1,2.0397732E0,2.2541359E-1,1.9800657E0,2.634872E0,1.9120009E0,3.250141E0,1.3749286E0,4.895734E-1,1.6349013E0,8.6530894E-1,1.3177656E0,3.77141E-2,8.9873296E-1,3.547227E-1,7.6133966E-1,5.518132E-1,1.7952967E0,1.3928895E0,2.1963306E-1,1.3379105E0,1.0797813E0,1.1456958E0,1.9324368E0,2.202317E0,-5.641687E-1,-3.93871E-1,-4.7860742E-1,-5.0647604E-1,-4.333565E-1,-3.5293263E-1,5.742232E-2,-3.2736436E-1,-4.3918037E-1],"split_indices":[33,33,8,1,1,38,0,7,22,48,46,27,46,20,37,14,21,7,2,49,33,15,37,1,1,9,20,15,2,21,43,0,0,20,43,28,38,20,17,5,43,30,0,0,0,43,2,25,21,0,0,0,0,0,0,0,0,0,0,0,0,0,0,0,0,0,0,0,0,0,0,0,0,0,0,0,0,0,0,0,0,0,0,0,0,0,0],"split_type":[0,0,0,0,0,0,0,0,0,0,0,0,0,0,0,0,0,0,0,0,0,0,0,0,0,0,0,0,0,0,0,0,0,0,0,0,0,0,0,0,0,0,0,0,0,0,0,0,0,0,0,0,0,0,0,0,0,0,0,0,0,0,0,0,0,0,0,0,0,0,0,0,0,0,0,0,0,0,0,0,0,0,0,0,0,0,0],"sum_hessian":[4.0967E4,1.3562E4,2.7405E4,4.021E3,9.541E3,1.3721E4,1.3684E4,2.594E3,1.427E3,2.895E3,6.646E3,4.1E1,1.368E4,2.44E3,1.54E2,1.407E3,2E1,1.094E3,1.801E3,1.288E3,5.358E3,2.5E1,1.6E1,6.98E3,6.7E3,1.25E2,2.315E3,3.2E1,1.22E2,9.85E2,4.22E2,1.7E1,3E0,3.54E2,7.4E2,4.12E2,1.389E3,9.65E2,3.23E2,4.72E3,6.38E2,2.2E1,3E0,1.3E1,3E0,2.264E3,4.716E3,2.178E3,4.522E3,1.7E1,1.08E2,1.621E3,6.94E2,1.1E1,2.1E1,1.16E2,6E0,2.65E2,7.2E2,2.7E1,3.95E2,3.28E2,2.6E1,5.01E2,2.39E2,4.9E1,3.63E2,1.131E3,2.58E2,5.9E1,9.06E2,2.31E2,9.2E1,1.075E3,3.645E3,3.56E2,2.82E2,1.3E1,9E0,4.07E2,1.857E3,4.438E3,2.78E2,2.156E3,2.2E1,1.81E2,4.341E3],"tree_param":{"num_deleted":"0","num_feature":"50","num_nodes":"87","size_leaf_vector":"1"}},{"base_weights":[-1.22772545E-1,2.2658508E1,-1.1325577E1,3.0789888E1,2.0932508E1,-8.490145E0,-7.0814323E-1,5.3834545E1,3.0050884E1,3.547444E1,1.986551E1,-8.586031E0,2.0180864E1,7.01488E1,-6.4147824E-1,7.0303793E0,3.0646692E1,2.9713428E1,4.299415E1,2.1285091E1,1.1046105E1,-9.530979E0,-7.9107914E0,8.203847E0,5.7534664E1,1.9829815E1,9.415216E1,-7.2331095E-1,3.746761E1,4.3702484E1,2.9526821E1,7.787483E1,2.7314777E1,7.928257E1,3.933041E1,3.7506367E1,2.0587124E1,3.627063E1,1.0298892E1,-8.787683E0,-9.649858E0,-8.22319E0,-6.565148E0,3.630614E1,-7.3558903E0,2.3907808E1,4.654267E0,-5.5245274E-1,2.305395E0,5.805581E0,4.020794E-1,-3.0669516E-1,3.015084E0,4.3008957E0,1.2138583E-1,1.711666E0,2.9156222E0,1.6487452E0,1.2512938E0,5.2623854E0,1.6356897E0,1.7125702E0,6.362314E-1,2.4918504E-1,4.922193E0,1.8308363E0,4.109292E0,6.3044685E-1,2.0473175E0,9.218203E-1,1.1576103E0,1.2759209E0,5.428144E0,4.431436E-1,1.0211866E0,-4.3002078E-1,-6.493398E-1,-4.8283815E-1,5.91554E-2,-2.9098776E-1,-4.2196438E-1,-2.8558457E-1,-3.9379412E-1,4.370826E0,6.110691E-1,1.1043323E0,-6.309237E-1,2.6308205E0,-5.3763723E-1],"categories":[],"categories_nodes":[],"categories_segments":[],"categories_sizes":[],"default_left":[0,0,0,0,0,0,0,0,0,0,0,0,0,0,0,0,0,0,0,0,0,0,0,0,0,0,0,0,0,0,0,0,0,0,0,0,0,0,0,0,0,0,0,0,0,0,0,0,0,0,0,0,0,0,0,0,0,0,0,0,0,0,0,0,0,0,0,0,0,0,0,0,0,0,0,0,0,0,0,0,0,0,0,0,0,0,0,0,0],"id":2,"left_children":[1,3,5,7,9,11,-1,13,15,17,19,21,23,25,-1,27,29,31,33,35,37,39,41,43,45,47,49,51,53,55,57,59,61,63,65,67,69,71,73,75,77,79,81,83,85,87,-1,-1,-1,-1,-1,-1,-1,-1,-1,-1,-1,-1,-1,-1,-1,-1,-1,-1,-1,-1,-1,-1,-1,-1,-1,-1,-1,-1,-1,-1,-1,-1,-1,-1,-1,-1,-1,-1,-1,-1,-1,-1,-1],"loss_changes":[1.0435454E7,1.885245E5,2.2038925E5,3.853125E4,1.71861E5,3.7868562E4,0E0,7.921117E4,3.114875E4,3.1596E4,1.2951725E5,8.6433125E3,2.0101227E4,6.817541E4,0E0,1.3954825E4,3.1292125E4,4.7883562E4,4.0345E4,1.00281E5,2.6744219E4,4.161875E2,3.297875E3,1.6011475E4,1.0912863E4,1.6741701E4,7.280056E4,1.6213171E4,2.01967E4,2.2066375E4,3.1077125E4,2.1266914E4,4.1458938E4,4.078525E4,3.1751219E4,3.0910688E4,4.67925E4,2.9085605E4,2.0156781E4,5.1208984E2,3.7846875E2,3.3098125E3,1.640582E3,1.4924439E4,3.9964045E3,7.5353486E3,0E0,0E0,0E0,0E0,0E0,0E0,0E0,0E0,0E0,0E0,0E0,0E0,0E0,0E0,0E0,0E0,0E0,0E0,0E0,0E0,0E0,0E0,0E0,0E0,0E0,0E0,0E0,0E0,0E0,0E0,0E0,0E0,0E0,0E0,0E0,0E0,0E0,0E0,0E0,0E0,0E0,0E0,0E0],"parents":[2147483647,0,0,1,1,2,2,3,3,4,4,5,5,7,7,8,8,9,9,10,10,11,11,12,12,13,13,15,15,16,16,17,17,18,18,19,19,20,20,21,21,22,22,23,23,24,24,25,25,26,26,27,27,28,28,29,29,30,30,31,31,32,32,33,33,34,34,35,35,36,36,37,37,38,38,39,39,40,40,41,41,42,42,43,43,44,44,45,45],"right_children":[2,4,6,8,10,12,-1,14,16,18,20,22,24,26,-1,28,30,32,34,36,38,40,42,44,46,48,50,52,54,56,58,60,62,64,66,68,70,72,74,76,78,80,82,84,86,88,-1,-1,-1,-1,-1,-1,-1,-1,-1,-1,-1,-1,-1,-1,-1,-1,-1,-1,-1,-1,-1,-1,-1,-1,-1,-1,-1,-1,-1,-1,-1,-1,-1,-1,-1,-1,-1,-1,-1,-1,-1,-1,-1],"split_conditions":[7.375005E2,-9.9175847E-1,1.68284E4,-9.9386495E-1,-9.924455E-1,7E-1,-7.0814323E-1,1.1496544E0,3.5403406E2,5.407571E1,8.882467E1,-5.3668606E-1,4.0084726E-1,-1.15993366E-1,-6.4147824E-1,-4.3707798E-4,6.31351E-5,1.4752634E1,-7.61831E-1,-9.924511E-1,2.324E2,-9.36805E-1,9.4057834E-1,-5.8338916E-1,4.0286274E0,1.7E0,8.415708E1,1.2810187E-3,5E-1,2.4480152E1,2.278721E0,2.736784E-2,3.4444404E0,1.0105476E4,4.464787E-2,4.0382053E1,9.35631E-1,-7.333585E-1,-1.2441407E0,2.7784398E-2,5.0766426E1,-6.767486E-1,1.1405241E-2,-3.4562066E-1,3.1E0,8.0266484E3,4.654267E0,-5.5245274E-1,2.305395E0,5.805581E0,4.020794E-1,-3.0669516E-1,3.015084E0,4.3008957E0,1.2138583E-1,1.711666E0,2.9156222E0,1.6487452E0,1.2512938E0,5.2623854E0,1.6356897E0,1.7125702E0,6.362314E-1,2.4918504E-1,4.922193E0,1.8308363E0,4.109292E0,6.3044685E-1,2.0473175E0,9.218203E-1,1.1576103E0,1.2759209E0,5.428144E0,4.431436E-1,1.0211866E0,-4.3002078E-1,-6.493398E-1,-4.8283815E-1,5.91554E-2,-2.9098776E-1,-4.2196438E-1,-2.8558457E-1,-3.9379412E-1,4.370826E0,6.110691E-1,1.1043323E0,-6.309237E-1,2.6308205E0,-5.3763723E-1],"split_indices":[33,23,7,5,21,12,0,18,2,22,48,36,3,42,0,14,27,28,30,14,7,23,13,3,4,16,28,5,16,47,6,30,6,11,27,22,13,38,35,27,34,38,14,30,16,11,0,0,0,0,0,0,0,0,0,0,0,0,0,0,0,0,0,0,0,0,0,0,0,0,0,0,0,0,0,0,0,0,0,0,0,0,0,0,0,0,0,0,0],"split_type":[0,0,0,0,0,0,0,0,0,0,0,0,0,0,0,0,0,0,0,0,0,0,0,0,0,0,0,0,0,0,0,0,0,0,0,0,0,0,0,0,0,0,0,0,0,0,0,0,0,0,0,0,0,0,0,0,0,0,0,0,0,0,0,0,0,0,0,0,0,0,0,0,0,0,0,0,0,0,0,0,0,0,0,0,0,0,0,0,0],"sum_hessian":[4.0887E4,1.3478E4,2.7409E4,2.357E3,1.1121E4,1.3711E4,1.3698E4,7.1E1,2.286E3,7.58E2,1.0363E4,1.3666E4,4.5E1,5.7E1,1.4E1,5.8E1,2.228E3,4.32E2,3.26E2,8.925E3,1.438E3,5.69E3,7.976E3,3.5E1,1E1,1.9E1,3.8E1,4.7E1,1.1E1,1.73E2,2.055E3,1.9E1,4.13E2,2.8E1,2.98E2,3.66E2,8.559E3,4E1,1.398E3,7.95E2,4.895E3,6.469E3,1.507E3,1.2E1,2.3E1,6E0,4E0,9E0,1E1,3E1,8E0,4.4E1,3E0,4E0,7E0,1.07E2,6.6E1,1.16E3,8.95E2,1.1E1,8E0,2.79E2,1.34E2,6E0,2.2E1,2.82E2,1.6E1,4.5E1,3.21E2,4.66E3,3.899E3,3.6E1,4E0,1.226E3,1.72E2,7.64E2,3.1E1,4.892E3,3E0,5.36E2,5.933E3,9.16E2,5.91E2,3E0,9E0,3E0,2E1,3E0,3E0],"tree_param":{"num_deleted":"0","num_feature":"50","num_nodes":"89","size_leaf_vector":"1"}},{"base_weights":[-7.097288E-2,2.1617275E1,-1.0724767E1,1.6818958E1,2.4515064E1,-8.042963E0,-6.727376E-1,2.4235561E1,1.1269199E1,3.141378E1,2.1563671E1,3.0921694E1,-8.107306E0,3.0440971E1,2.138914E1,8.207221E0,1.5017509E1,4.9506638E1,3.0596054E1,2.1406918E1,5.2448143E1,1.4025994E1,4.4460506E0,2.3588848E1,-8.138899E0,3.8169174E1,2.4630945E1,2.8855825E1,1.8634409E1,1.039417E1,5.3297954E0,1.640365E1,5.07427E0,1.051618E2,4.068984E1,2.4794256E1,3.2895554E1,9.894186E0,2.184637E1,1.0556002E1,7.39358E1,2.6223068E0,-3.434494E0,-9.7123045E-1,4.2628427E0,-9.089813E0,-7.4478517E0,-1.0259743E-1,2.041939E0,1.0985637E0,2.437854E0,7.892647E-1,1.6697254E0,-5.1893353E-1,9.675938E-1,5.879733E-1,2.4212599E-2,1.211666E0,2.0979762E-1,8.457406E-1,-4.0756342E-1,-3.6491403E-1,5.357071E-1,6.178535E0,2.3645816E0,1.531449E0,3.9393222E0,1.0540607E0,2.082386E0,6.5511596E-1,1.6996574E0,3.9584118E-1,3.0275338E0,4.2418976E0,1.087087E0,2.798306E0,-6.7280287E-1,6.497729E-1,4.4656763E0,1.0766032E0,-6.105053E-1,1.0422194E0,-5.8850676E-1,2.8679225E-1,-4.5530868E-1,-3.8425982E-1,-2.9106602E-1],"categories":[],"categories_nodes":[],"categories_segments":[],"categories_sizes":[],"default_left":[0,0,0,0,0,0,0,0,0,0,0,0,0,0,0,0,0,0,0,0,0,0,0,0,0,0,0,0,0,0,0,0,0,0,0,0,0,0,0,0,0,0,0,0,0,0,0,0,0,0,0,0,0,0,0,0,0,0,0,0,0,0,0,0,0,0,0,0,0,0,0,0,0,0,0,0,0,0,0,0,0,0,0,0,0,0,0],"id":3,"left_children":[1,3,5,7,9,11,-1,13,15,17,19,21,23,25,27,29,31,33,35,37,39,41,-1,43,45,47,49,51,53,55,57,59,61,63,65,67,69,71,73,75,77,-1,79,81,-1,83,85,-1,-1,-1,-1,-1,-1,-1,-1,-1,-1,-1,-1,-1,-1,-1,-1,-1,-1,-1,-1,-1,-1,-1,-1,-1,-1,-1,-1,-1,-1,-1,-1,-1,-1,-1,-1,-1,-1,-1,-1],"loss_changes":[9.442815E6,1.86766E5,2.005295E5,2.0848862E5,1.70165E5,3.4913812E4,0E0,3.7672875E4,3.3192844E4,3.564225E4,2.733625E4,2.1281098E4,1.4014625E4,2.9586312E4,3.0125438E4,1.0011477E4,1.7887281E4,4.8211344E4,3.12775E4,2.938775E4,2.5315836E4,1.2930883E4,0E0,2.1295229E4,8.9936875E3,3.1226281E4,2.4011219E4,2.3197156E4,2.2932688E4,1.2278305E4,1.474898E4,1.449775E4,1.1313053E4,9.053625E3,3.360467E4,4.2106625E4,3.6916875E4,2.1249855E4,3.52915E4,1.2751629E4,1.6634445E4,0E0,3.329332E3,2.8358665E3,0E0,1.459375E3,3.0396562E3,0E0,0E0,0E0,0E0,0E0,0E0,0E0,0E0,0E0,0E0,0E0,0E0,0E0,0E0,0E0,0E0,0E0,0E0,0E0,0E0,0E0,0E0,0E0,0E0,0E0,0E0,0E0,0E0,0E0,0E0,0E0,0E0,0E0,0E0,0E0,0E0,0E0,0E0,0E0,0E0],"parents":[2147483647,0,0,1,1,2,2,3,3,4,4,5,5,7,7,8,8,9,9,10,10,11,11,12,12,13,13,14,14,15,15,16,16,17,17,18,18,19,19,20,20,21,21,23,23,24,24,25,25,26,26,27,27,28,28,29,29,30,30,31,31,32,32,33,33,34,34,35,35,36,36,37,37,38,38,39,39,40,40,42,42,43,43,45,45,46,46],"right_children":[2,4,6,8,10,12,-1,14,16,18,20,22,24,26,28,30,32,34,36,38,40,42,-1,44,46,48,50,52,54,56,58,60,62,64,66,68,70,72,74,76,78,-1,80,82,-1,84,86,-1,-1,-1,-1,-1,-1,-1,-1,-1,-1,-1,-1,-1,-1,-1,-1,-1,-1,-1,-1,-1,-1,-1,-1,-1,-1,-1,-1,-1,-1,-1,-1,-1,-1,-1,-1,-1,-1,-1,-1],"split_conditions":[7.375005E2,1.4091658E6,2.1066904E0,2.495236E2,3.2782635E2,-7.417126E-1,-6.727376E-1,-3.73845E-1,3.080761E2,-2.3150783E0,5.0766426E1,5.419302E0,-8.52873E-1,6.0855006E-3,8E-1,-8.086384E-1,8.201473E-3,4.0941124E1,-1.7961177E-1,8.837038E6,-1.8969333E-3,2.5072093E0,4.4460506E0,1.03183486E-1,-5.3668606E-1,-4.2899138E-1,3.490439E4,1.1294962E0,1.3264225E1,3.018925E4,-6.9372183E-1,4.9E0,-1.7170258E0,7.7273E1,2.9080904E-1,3.3163956E1,2.609E2,1.072139E0,6.74351E-1,-7.5460285E-1,-7.5822294E-1,2.6223068E0,-5.8338916E-1,6.256658E1,4.2628427E0,7.5658984E2,9.4199467E-1,-1.0259743E-1,2.041939E0,1.0985637E0,2.437854E0,7.892647E-1,1.6697254E0,-5.1893353E-1,9.675938E-1,5.879733E-1,2.4212599E-2,1.211666E0,2.0979762E-1,8.457406E-1,-4.0756342E-1,-3.6491403E-1,5.357071E-1,6.178535E0,2.3645816E0,1.531449E0,3.9393222E0,1.0540607E0,2.082386E0,6.5511596E-1,1.6996574E0,3.9584118E-1,3.0275338E0,4.2418976E0,1.087087E0,2.798306E0,-6.7280287E-1,6.497729E-1,4.4656763E0,1.0766032E0,-6.105053E-1,1.0422194E0,-5.8850676E-1,2.8679225E-1,-4.5530868E-1,-3.8425982E-1,-2.9106602E-1],"split_indices":[33,1,36,41,45,38,0,30,31,18,34,30,18,9,12,21,9,22,3,1,5,4,0,3,36,3,49,4,28,49,3,16,35,48,3,34,24,3,13,3,38,0,3,48,0,45,13,0,0,0,0,0,0,0,0,0,0,0,0,0,0,0,0,0,0,0,0,0,0,0,0,0,0,0,0,0,0,0,0,0,0,0,0,0,0,0,0],"split_type":[0,0,0,0,0,0,0,0,0,0,0,0,0,0,0,0,0,0,0,0,0,0,0,0,0,0,0,0,0,0,0,0,0,0,0,0,0,0,0,0,0,0,0,0,0,0,0,0,0,0,0,0,0,0,0,0,0,0,0,0,0,0,0,0,0,0,0,0,0,0,0,0,0,0,0,0,0,0,0,0,0,0,0,0,0,0,0],"sum_hessian":[4.0865E4,1.3461E4,2.7404E4,5.071E3,8.39E3,1.3826E4,1.3578E4,2.169E3,2.902E3,2.511E3,5.879E3,2.2E1,1.3804E4,6.79E2,1.49E3,1.599E3,1.303E3,1.06E2,2.405E3,5.851E3,2.8E1,1.8E1,4E0,1.3E1,1.3791E4,2.89E2,3.9E2,3.99E2,1.091E3,9.07E2,6.92E2,1.143E3,1.6E2,1.3E1,9.3E1,6.86E2,1.719E3,2.16E2,5.635E3,1E1,1.8E1,5E0,1.3E1,1E1,3E0,5.799E3,7.992E3,1.8E1,2.71E2,3.53E2,3.7E1,1.04E2,2.95E2,2.6E1,1.065E3,7.97E2,1.1E2,3.8E1,6.54E2,1.12E3,2.3E1,5E1,1.1E2,9E0,4E0,7.5E1,1.8E1,5.64E2,1.22E2,9.1E1,1.628E3,2.09E2,7E0,8E0,5.627E3,3E0,7E0,4E0,1.4E1,3E0,1E1,3E0,7E0,6E0,5.793E3,6.971E3,1.021E3],"tree_param":{"num_deleted":"0","num_feature":"50","num_nodes":"87","size_leaf_vector":"1"}},{"base_weights":[-4.4250353E-3,2.045972E1,-1.0226754E1,2.623459E1,1.8322897E1,-7.6818247E0,-6.3906014E-1,2.4216213E1,4.1041927E1,1.083631E1,2.1490875E1,-7.7508903E0,2.2962757E1,2.5741367E1,1.8108704E1,4.8217205E1,2.336883E1,1.4629054E1,8.407353E0,2.9188236E1,1.9346352E1,-8.512896E0,-6.953684E0,7.325413E0,3.7757866E0,5.8972713E1,2.5250017E1,7.377041E1,1.7388979E1,2.2458939E1,5.3163998E1,1.9050087E1,6.3321805E0,1.4380542E1,2.990284E0,1.4442014E1,6.6881404E0,3.3824448E1,2.2552208E1,1.3692027E1,2.0217834E1,1.8970676E1,-8.547207E0,-5.8749413E0,-7.516556E0,-6.0747557E0,3.9609993E0,4.794368E0,1.4720291E0,1.246772E0,3.537085E0,1.1182979E0,5.0059943E0,1.2361556E0,6.114182E-1,6.081924E-1,2.985833E0,4.4325137E0,2.4345078E0,7.0647776E-1,4.4617095E0,8.3628464E-1,4.6351677E-1,6.187553E-1,1.4330435E0,4.3133244E-1,6.695943E-2,1.5656122E0,2.3857968E0,1.4355998E-1,1.2446617E0,-1.5543637E-1,7.832975E-1,1.0014874E0,2.6772614E0,-3.3142713E-1,2.632592E0,-3.9598426E-1,-4.398327E-1,-3.5291556E-1,-2.6018804E-1,-3.9078152E-1,-3.147457E-1,1.0828863E0,-5.799356E-1],"categories":[],"categories_nodes":[],"categories_segments":[],"categories_sizes":[],"default_left":[0,0,0,0,0,0,0,0,0,0,0,0,0,0,0,0,0,0,0,0,0,0,0,0,0,0,0,0,0,0,0,0,0,0,0,0,0,0,0,0,0,0,0,0,0,0,0,0,0,0,0,0,0,0,0,0,0,0,0,0,0,0,0,0,0,0,0,0,0,0,0,0,0,0,0,0,0,0,0,0,0,0,0,0,0],"id":4,"left_children":[1,3,5,7,9,11,-1,13,15,17,19,21,23,25,27,29,31,33,35,37,39,41,43,45,-1,47,49,51,53,55,57,59,-1,61,-1,63,65,67,69,71,73,75,77,79,81,83,-1,-1,-1,-1,-1,-1,-1,-1,-1,-1,-1,-1,-1,-1,-1,-1,-1,-1,-1,-1,-1,-1,-1,-1,-1,-1,-1,-1,-1,-1,-1,-1,-1,-1,-1,-1,-1,-1,-1],"loss_changes":[8.561777E6,1.677565E5,1.77335E5,1.08983E5,2.3587E5,2.9119375E4,0E0,2.9719125E4,5.466225E4,2.7161844E4,1.1488175E5,8.2283125E3,2.4913988E4,4.0808875E4,2.4787844E4,3.8553688E4,5.5109062E4,1.2099641E4,1.8659062E4,4.60575E4,2.668875E4,6.7355312E3,4.006875E3,2.4573543E4,0E0,3.750072E4,3.4790125E4,8.58432E3,2.4068516E4,1.9212152E4,3.710625E4,4.1896723E4,0E0,1.3624219E4,0E0,1.1396844E4,1.4597355E4,2.9697062E4,2.8906094E4,2.439189E4,2.8632625E4,8.113509E3,1.01875E3,1.7832734E3,1.5504219E3,3.6204424E3,0E0,0E0,0E0,0E0,0E0,0E0,0E0,0E0,0E0,0E0,0E0,0E0,0E0,0E0,0E0,0E0,0E0,0E0,0E0,0E0,0E0,0E0,0E0,0E0,0E0,0E0,0E0,0E0,0E0,0E0,0E0,0E0,0E0,0E0,0E0,0E0,0E0,0E0,0E0],"parents":[2147483647,0,0,1,1,2,2,3,3,4,4,5,5,7,7,8,8,9,9,10,10,11,11,12,12,13,13,14,14,15,15,16,16,17,17,18,18,19,19,20,20,21,21,22,22,23,23,25,25,26,26,27,27,28,28,29,29,30,30,31,31,33,33,35,35,36,36,37,37,38,38,39,39,40,40,41,41,42,42,43,43,44,44,45,45],"right_children":[2,4,6,8,10,12,-1,14,16,18,20,22,24,26,28,30,32,34,36,38,40,42,44,46,-1,48,50,52,54,56,58,60,-1,62,-1,64,66,68,70,72,74,76,78,80,82,84,-1,-1,-1,-1,-1,-1,-1,-1,-1,-1,-1,-1,-1,-1,-1,-1,-1,-1,-1,-1,-1,-1,-1,-1,-1,-1,-1,-1,-1,-1,-1,-1,-1,-1,-1,-1,-1,-1,-1],"split_conditions":[7.375005E2,2.55E2,1E0,2.8763085E6,-9.400895E-1,9.2E-1,-6.3906014E-1,-1.0961441E-3,7.7273E1,7.715072E1,4.0919846E2,2.2804238E3,1.1306533E0,-5.399079E2,-1.7185284E0,-1.0094075E0,4.289416E1,6.635141E-3,5.763449E3,3.549673E4,-7.557501E-1,-1.7187604E0,-8.891716E5,3.9941993E0,3.7757866E0,2.287318E2,1.3976851E-2,1.135474E3,-1.5225679E2,4.154331E4,3.1096197E1,9.3902435E1,6.3321805E0,6.9668796E-3,2.990284E0,8.64279E1,-6.0964613E-3,8.837038E6,2.34574E1,4.7793542E2,2.396E1,2.58021E1,-8.642497E5,4.8E-1,9.3961287E-1,2.4192657E1,3.9609993E0,4.794368E0,1.4720291E0,1.246772E0,3.537085E0,1.1182979E0,5.0059943E0,1.2361556E0,6.114182E-1,6.081924E-1,2.985833E0,4.4325137E0,2.4345078E0,7.0647776E-1,4.4617095E0,8.3628464E-1,4.6351677E-1,6.187553E-1,1.4330435E0,4.3133244E-1,6.695943E-2,1.5656122E0,2.3857968E0,1.4355998E-1,1.2446617E0,-1.5543637E-1,7.832975E-1,1.0014874E0,2.6772614E0,-3.3142713E-1,2.632592E0,-3.9598426E-1,-4.398327E-1,-3.5291556E-1,-2.6018804E-1,-3.9078152E-1,-3.147457E-1,1.0828863E0,-5.799356E-1],"split_indices":[33,40,8,1,36,12,0,14,48,48,41,46,17,0,35,17,34,23,2,19,38,35,1,4,0,31,5,2,0,24,28,20,0,9,0,20,14,1,20,2,16,34,1,12,13,20,0,0,0,0,0,0,0,0,0,0,0,0,0,0,0,0,0,0,0,0,0,0,0,0,0,0,0,0,0,0,0,0,0,0,0,0,0,0,0],"split_type":[0,0,0,0,0,0,0,0,0,0,0,0,0,0,0,0,0,0,0,0,0,0,0,0,0,0,0,0,0,0,0,0,0,0,0,0,0,0,0,0,0,0,0,0,0,0,0,0,0,0,0,0,0,0,0,0,0,0,0,0,0,0,0,0,0,0,0,0,0,0,0,0,0,0,0,0,0,0,0,0,0,0,0,0,0],"sum_hessian":[4.0926E4,1.3633E4,2.7293E4,3.679E3,9.954E3,1.3674E4,1.3619E4,3.24E3,4.39E2,2.961E3,6.993E3,1.3644E4,3E1,2.59E3,6.5E2,3.11E2,1.28E2,1.154E3,1.807E3,1.521E3,5.472E3,6.971E3,6.673E3,2.4E1,6E0,3.6E1,2.554E3,7E0,6.43E2,5.1E1,2.6E2,1.24E2,4E0,1.149E3,5E0,3.99E2,1.408E3,8.93E2,6.28E2,7.33E2,4.739E3,8E0,6.963E3,2.292E3,4.381E3,2.1E1,3E0,1.5E1,2.1E1,2.538E3,1.6E1,3E0,4E0,2.64E2,3.79E2,4.1E1,1E1,2.7E1,2.33E2,1.17E2,7E0,7.86E2,3.63E2,3.5E2,4.9E1,1.033E3,3.75E2,7.59E2,1.34E2,6.7E1,5.61E2,7.7E1,6.56E2,4.714E3,2.5E1,5E0,3E0,1.99E3,4.973E3,8.26E2,1.466E3,3.515E3,8.66E2,3E0,1.8E1],"tree_param":{"num_deleted":"0","num_feature":"50","num_nodes":"85","size_leaf_vector":"1"}},{"base_weights":[-7.45498E-2,1.9181585E1,-9.71603E0,1.4971272E1,2.1733633E1,-7.29374E0,-6.072802E-1,2.1807896E1,1.0849755E1,2.726882E1,1.928653E1,-7.3790975E0,1.6570368E1,-9.0745544E-1,2.208707E1,1.8365622E1,9.786254E0,2.5655193E1,3.9258217E1,1.5293675E1,2.0801035E1,-8.106663E0,-6.6111116E0,3.968327E1,5.2034035E0,1.8939978E1,2.5829672E1,1.7044E1,5.6187145E1,1.3202932E1,7.9134555E0,2.67498E1,1.3154868E1,6.372972E1,3.0499102E1,1.3744961E1,2.2689123E1,1.9383589E1,2.6581057E1,2.177116E-1,-8.114439E0,-5.576003E0,-7.1060314E0,7.0232414E1,3.4257013E-1,3.949732E1,-6.863851E0,1.0823044E0,5.338061E-1,-8.2493764E-1,1.3143842E0,1.029916E0,1.5950015E-1,5.1454467E-1,3.4458466E0,-3.170659E-1,6.949467E-1,6.534427E-1,3.301599E-1,1.2440225E0,1.7495749E0,-4.6017247E-1,1.0803822E0,-7.091044E-1,3.511995E0,1.7168438E0,-9.5742035E-1,3.7695995E-1,8.026237E-1,8.151145E-1,2.0287523E0,1.0481077E0,7.744891E-1,3.0366933E0,1.2442439E0,-3.8157126E-1,-4.1526324E-1,-2.8271195E-1,9.486022E-2,-3.6849514E-1,-3.0684355E-1,4.58192E0,1.0270166E0,-7.059445E-1,9.179376E-1,3.8570092E0,3.90126E-1,1.0738353E0,-5.7492816E-1],"categories":[],"categories_nodes":[],"categories_segments":[],"categories_sizes":[],"default_left":[0,0,0,0,0,0,0,0,0,0,0,0,0,0,0,0,0,0,0,0,0,0,0,0,0,0,0,0,0,0,0,0,0,0,0,0,0,0,0,0,0,0,0,0,0,0,0,0,0,0,0,0,0,0,0,0,0,0,0,0,0,0,0,0,0,0,0,0,0,0,0,0,0,0,0,0,0,0,0,0,0,0,0,0,0,0,0,0,0],"id":5,"left_children":[1,3,5,7,9,11,-1,13,15,17,19,21,23,-1,25,27,29,31,33,35,37,39,41,43,45,47,49,51,53,55,57,59,61,63,65,67,69,71,73,-1,75,77,79,81,83,85,87,-1,-1,-1,-1,-1,-1,-1,-1,-1,-1,-1,-1,-1,-1,-1,-1,-1,-1,-1,-1,-1,-1,-1,-1,-1,-1,-1,-1,-1,-1,-1,-1,-1,-1,-1,-1,-1,-1,-1,-1,-1,-1],"loss_changes":[7.6006375E6,1.46436E5,1.6045575E5,1.4509838E5,1.146305E5,2.795275E4,0E0,2.203075E4,2.5555344E4,4.936425E4,3.535075E4,7.552375E3,1.2662478E4,0E0,2.2191375E4,1.8929344E4,1.7957062E4,3.1087625E4,6.3851938E4,1.8307781E4,3.44965E4,7.126875E2,3.355125E3,1.9198076E4,1.4344702E4,2.3246656E4,1.7437E4,1.8939133E4,6.8781055E3,1.3664531E4,1.22461875E4,3.1662125E4,3.554121E4,4.1579312E4,4.4101234E4,1.9165469E4,3.1318469E4,2.0791375E4,4.7082812E4,0E0,5.7865625E2,1.2675781E3,1.0993594E3,7.679871E3,2.3439514E3,1.0127365E4,3.661061E3,0E0,0E0,0E0,0E0,0E0,0E0,0E0,0E0,0E0,0E0,0E0,0E0,0E0,0E0,0E0,0E0,0E0,0E0,0E0,0E0,0E0,0E0,0E0,0E0,0E0,0E0,0E0,0E0,0E0,0E0,0E0,0E0,0E0,0E0,0E0,0E0,0E0,0E0,0E0,0E0,0E0,0E0],"parents":[2147483647,0,0,1,1,2,2,3,3,4,4,5,5,7,7,8,8,9,9,10,10,11,11,12,12,14,14,15,15,16,16,17,17,18,18,19,19,20,20,21,21,22,22,23,23,24,24,25,25,26,26,27,27,28,28,29,29,30,30,31,31,32,32,33,33,34,34,35,35,36,36,37,37,38,38,40,40,41,41,42,42,43,43,44,44,45,45,46,46],"right_children":[2,4,6,8,10,12,-1,14,16,18,20,22,24,-1,26,28,30,32,34,36,38,40,42,44,46,48,50,52,54,56,58,60,62,64,66,68,70,72,74,-1,76,78,80,82,84,86,88,-1,-1,-1,-1,-1,-1,-1,-1,-1,-1,-1,-1,-1,-1,-1,-1,-1,-1,-1,-1,-1,-1,-1,-1,-1,-1,-1,-1,-1,-1,-1,-1,-1,-1,-1,-1,-1,-1,-1,-1,-1,-1],"split_conditions":[7.375005E2,1.4146612E6,1E0,2.4425781E2,3.25E2,2.0052548E6,-6.072802E-1,-9.9235606E-1,-9.8865706E-1,6.500112E1,6.953083E3,2.2804238E3,2.2429262E1,-9.0745544E-1,4.248141E3,5.224603E4,6.596781E3,4.9379176E-1,6.728195E1,8.1197603E3,2.2513343E-1,-7.5855914E2,-1.0254494E6,1.3762408E4,-5.8338916E-1,1.0956314E-2,9.810114E0,2.3E0,-1.7317463E-1,-5.0588185E-1,5.0121015E-3,6.6313E-1,-9.3198955E-1,4.2936816E-3,-6.5757026E-4,8.8E-1,1.5731273E0,1.1051985E0,-9.930747E-1,2.177116E-1,-8.642497E5,3.40251E3,9.3951243E-1,7.3869E2,-8.122269E-1,5.3508656E1,-4.0236455E-1,1.0823044E0,5.338061E-1,-8.2493764E-1,1.3143842E0,1.029916E0,1.5950015E-1,5.1454467E-1,3.4458466E0,-3.170659E-1,6.949467E-1,6.534427E-1,3.301599E-1,1.2440225E0,1.7495749E0,-4.6017247E-1,1.0803822E0,-7.091044E-1,3.511995E0,1.7168438E0,-9.5742035E-1,3.7695995E-1,8.026237E-1,8.151145E-1,2.0287523E0,1.0481077E0,7.744891E-1,3.0366933E0,1.2442439E0,-3.8157126E-1,-4.1526324E-1,-2.8271195E-1,9.486022E-2,-3.6849514E-1,-3.0684355E-1,4.58192E0,1.0270166E0,-7.059445E-1,9.179376E-1,3.8570092E0,3.90126E-1,1.0738353E0,-5.7492816E-1],"split_indices":[33,1,8,41,7,1,0,5,5,22,15,46,28,0,2,2,2,42,22,2,32,0,1,2,3,27,28,16,32,32,9,17,36,9,23,12,30,17,5,0,1,26,13,7,21,22,32,0,0,0,0,0,0,0,0,0,0,0,0,0,0,0,0,0,0,0,0,0,0,0,0,0,0,0,0,0,0,0,0,0,0,0,0,0,0,0,0,0,0],"split_type":[0,0,0,0,0,0,0,0,0,0,0,0,0,0,0,0,0,0,0,0,0,0,0,0,0,0,0,0,0,0,0,0,0,0,0,0,0,0,0,0,0,0,0,0,0,0,0,0,0,0,0,0,0,0,0,0,0,0,0,0,0,0,0,0,0,0,0,0,0,0,0,0,0,0,0,0,0,0,0,0,0,0,0,0,0,0,0,0,0],"sum_hessian":[4.0937E4,1.3658E4,2.7279E4,5.157E3,8.501E3,1.3662E4,1.3617E4,1.938E3,3.219E3,2.603E3,5.898E3,1.3614E4,4.8E1,1.3E1,1.925E3,3.97E2,2.822E3,2.297E3,3.06E2,1.625E3,4.273E3,6.986E3,6.628E3,1.5E1,3.3E1,1.049E3,8.76E2,3.85E2,1.2E1,9.97E2,1.825E3,2.111E3,1.86E2,7.9E1,2.27E2,1.346E3,2.79E2,3.435E3,8.38E2,4E0,6.982E3,2.148E3,4.48E3,8E0,7E0,8E0,2.5E1,7.89E2,2.6E2,9E0,8.67E2,3.06E2,7.9E1,3E0,9E0,3.4E1,9.63E2,3.68E2,1.457E3,1.724E3,3.87E2,5.1E1,1.35E2,6E0,7.3E1,2.11E2,1.6E1,3.66E2,9.8E2,2.07E2,7.2E1,2.441E3,9.94E2,3.8E1,8E2,1.989E3,4.993E3,2.126E3,2.2E1,3.516E3,9.64E2,5E0,3E0,4E0,3E0,3E0,5E0,3E0,2.2E1],"tree_param":{"num_deleted":"0","num_feature":"50","num_nodes":"89","size_leaf_vector":"1"}},{"base_weights":[1.35116E-2,1.850722E1,-9.200384E0,2.35279E1,1.643299E1,-6.870988E0,-5.76832E-1,2.1790892E1,3.7561325E1,9.804747E0,1.9141983E1,4.471362E0,-6.9058247E0,2.3930576E1,1.687952E1,7.089019E1,3.437629E1,7.034914E0,1.2685016E1,2.5105776E1,1.7630775E1,1.6003174E1,-6.949115E0,2.2676016E1,3.88515E1,1.40985365E1,2.9264753E1,4.7640057E1,5.7674823E0,9.334045E-1,3.779163E1,6.7162304E0,3.1531256E1,-3.9563272E0,1.3229368E1,2.991429E1,1.7546095E1,1.50216055E1,1.9649797E1,5.760634E1,-2.3509586E0,-7.79073E0,-6.338455E0,1.3917583E0,9.935339E-1,1.5084884E0,2.9726505E0,1.0107327E0,4.4977823E-1,2.3811197E0,8.3628076E-1,2.8379743E0,-8.340851E-1,3.6400814E0,-3.6519593E-1,-4.2128435E-1,2.0046859E0,1.679736E0,3.2108474E-1,2.0301287E0,-5.1720023E-1,-4.5946094E-1,2.5322447E0,2.0001533E0,6.45607E-1,1.2730563E0,2.076226E0,-3.0382743E-1,1.012722E0,6.427908E-1,9.673878E-1,8.9857835E-1,1.1831532E0,8.053285E-1,3.9632442E0,-8.9837354E-1,2.2474387E0,-3.904885E-1,1.0660509E0,-1.7146923E-1,-3.2391587E-1],"categories":[],"categories_nodes":[],"categories_segments":[],"categories_sizes":[],"default_left":[0,0,0,0,0,0,0,0,0,0,0,0,0,0,0,0,0,0,0,0,0,0,0,0,0,0,0,0,0,0,0,0,0,0,0,0,0,0,0,0,0,0,0,0,0,0,0,0,0,0,0,0,0,0,0,0,0,0,0,0,0,0,0,0,0,0,0,0,0,0,0,0,0,0,0,0,0,0,0,0,0],"id":6,"left_children":[1,3,5,7,9,11,-1,13,15,17,19,-1,21,23,25,27,29,31,33,35,37,39,41,43,45,47,49,51,-1,53,55,57,59,61,63,65,67,69,71,73,75,77,79,-1,-1,-1,-1,-1,-1,-1,-1,-1,-1,-1,-1,-1,-1,-1,-1,-1,-1,-1,-1,-1,-1,-1,-1,-1,-1,-1,-1,-1,-1,-1,-1,-1,-1,-1,-1,-1,-1],"loss_changes":[6.9483645E6,1.40824E5,1.480355E5,9.575425E4,1.7216775E5,4.6337438E4,0E0,3.6666875E4,4.3729375E4,2.2143062E4,6.09555E4,0E0,1.3624625E4,4.5068375E4,3.6575E4,3.273489E4,4.5534188E4,1.089318E4,1.24185E4,4.945275E4,2.835375E4,1.9994295E4,6.9398125E3,3.225275E4,3.2001281E4,2.7249172E4,4.431411E4,1.6201883E4,0E0,2.3034354E4,3.8856438E4,1.0911105E4,7.2605703E3,1.3033021E4,1.0706422E4,4.231425E4,3.4480812E4,2.2019438E4,2.02005E4,5.904377E3,1.4839397E4,3.332875E3,3.1861562E3,0E0,0E0,0E0,0E0,0E0,0E0,0E0,0E0,0E0,0E0,0E0,0E0,0E0,0E0,0E0,0E0,0E0,0E0,0E0,0E0,0E0,0E0,0E0,0E0,0E0,0E0,0E0,0E0,0E0,0E0,0E0,0E0,0E0,0E0,0E0,0E0,0E0,0E0],"parents":[2147483647,0,0,1,1,2,2,3,3,4,4,5,5,7,7,8,8,9,9,10,10,12,12,13,13,14,14,15,15,16,16,17,17,18,18,19,19,20,20,21,21,22,22,23,23,24,24,25,25,26,26,27,27,29,29,30,30,31,31,32,32,33,33,34,34,35,35,36,36,37,37,38,38,39,39,40,40,41,41,42,42],"right_children":[2,4,6,8,10,12,-1,14,16,18,20,-1,22,24,26,28,30,32,34,36,38,40,42,44,46,48,50,52,-1,54,56,58,60,62,64,66,68,70,72,74,76,78,80,-1,-1,-1,-1,-1,-1,-1,-1,-1,-1,-1,-1,-1,-1,-1,-1,-1,-1,-1,-1,-1,-1,-1,-1,-1,-1,-1,-1,-1,-1,-1,-1,-1,-1,-1,-1,-1,-1],"split_conditions":[-7.073939E-1,2.71305E2,1E0,3.1430558E6,-9.400895E-1,-1.7077914E0,-5.76832E-1,6.6129036E1,8.400128E2,3.080761E2,4.08615E2,4.471362E0,5.989673E2,6.420181E1,9.3691355E-1,7.634406E2,-4.8081613E-1,2.725118E4,-7.720684E-1,3.549673E4,3.7E0,-2.7635822E-1,-5.3668606E-1,-4.6200073E-1,-9.4215584E-1,1.1E0,1.7735131E0,8.359475E-1,5.7674823E0,-2.3295168E2,5.0566708E1,-1.4756523E0,1.2308743E4,3.2871237E-1,6.147915E2,-3.4768211E-3,2.3076923E1,2.2773197E1,5.913987E2,9.430244E-1,-8.3294463E-1,1.4915048E7,-9.609687E-1,1.3917583E0,9.935339E-1,1.5084884E0,2.9726505E0,1.0107327E0,4.4977823E-1,2.3811197E0,8.3628076E-1,2.8379743E0,-8.340851E-1,3.6400814E0,-3.6519593E-1,-4.2128435E-1,2.0046859E0,1.679736E0,3.2108474E-1,2.0301287E0,-5.1720023E-1,-4.5946094E-1,2.5322447E0,2.0001533E0,6.45607E-1,1.2730563E0,2.076226E0,-3.0382743E-1,1.012722E0,6.427908E-1,9.673878E-1,8.9857835E-1,1.1831532E0,8.053285E-1,3.9632442E0,-8.9837354E-1,2.2474387E0,-3.904885E-1,1.0660509E0,-1.7146923E-1,-3.2391587E-1],"split_indices":[38,33,8,1,36,18,0,20,49,31,33,0,25,22,13,49,42,24,38,19,16,30,36,37,36,16,4,18,0,47,48,18,11,3,49,14,20,34,31,13,36,1,14,0,0,0,0,0,0,0,0,0,0,0,0,0,0,0,0,0,0,0,0,0,0,0,0,0,0,0,0,0,0,0,0,0,0,0,0,0,0],"split_type":[0,0,0,0,0,0,0,0,0,0,0,0,0,0,0,0,0,0,0,0,0,0,0,0,0,0,0,0,0,0,0,0,0,0,0,0,0,0,0,0,0,0,0,0,0,0,0,0,0,0,0,0,0,0,0,0,0,0,0,0,0,0,0,0,0,0,0,0,0,0,0,0,0,0,0,0,0,0,0,0,0],"sum_hessian":[4.0775E4,1.3559E4,2.7216E4,3.961E3,9.598E3,1.363E4,1.3586E4,3.527E3,4.34E2,2.786E3,6.812E3,4E0,1.3626E4,2.454E3,1.073E3,3.6E1,3.98E2,1.422E3,1.364E3,1.374E3,5.438E3,2.5E1,1.3601E4,2.266E3,1.88E2,8.78E2,1.95E2,2.5E1,1.1E1,3.7E1,3.61E2,1.405E3,1.7E1,4.3E1,1.321E3,8.38E2,5.36E2,2.376E3,3.062E3,7E0,1.8E1,5.714E3,7.887E3,7.95E2,1.471E3,1.34E2,5.4E1,3.98E2,4.8E2,7.8E1,1.17E2,2.2E1,3E0,3E0,3.4E1,1.7E1,3.44E2,1.4E1,1.391E3,1.4E1,3E0,4E1,3E0,1.4E1,1.307E3,6.08E2,2.3E2,5.5E1,4.81E2,1.586E3,7.9E2,2.163E3,8.99E2,3E0,4E0,1.4E1,4E0,5.711E3,3E0,3.63E2,7.524E3],"tree_param":{"num_deleted":"0","num_feature":"50","num_nodes":"81","size_leaf_vector":"1"}},{"base_weights":[1.259379E-1,1.7914864E1,-8.762004E0,2.2526066E1,1.5973907E1,-6.565631E0,-5.480394E-1,2.1463188E1,4.5565353E1,9.572377E0,1.8699804E1,2.8056877E1,-6.621061E0,2.1116339E1,6.81494E1,3.0391546E1,6.4433495E1,4.937786E0,1.119124E1,2.6390133E1,1.6917343E1,-4.5105963E0,5.5580654E1,1.1687241E0,-6.6337957E0,2.2836348E1,1.0095907E1,4.1398914E1,5.0179234E0,1.5891641E1,6.9002716E1,7.333431E1,-3.415486E0,5.7996264E0,-1.3227095E1,3.0475405E1,1.0635065E1,2.266271E1,3.493679E1,6.0192447E0,1.7460653E1,1.0230492E0,-8.2225317E-1,4.3220396E0,5.1485264E-1,-5.4732866E0,-6.9651723E0,1.0274278E0,1.6179594E0,7.7617496E-1,7.505026E-2,3.4459786E0,9.053648E-2,-5.4892987E-1,1.6244138E0,-9.5248836E-1,4.2574396E0,3.9503484E0,-7.528505E-1,-9.9643975E-1,1.3155838E0,1.24289095E-1,5.12665E-1,-7.763888E-1,3.94248E-1,-2.8769824E-1,1.8136615E0,6.128282E-1,3.0715784E-1,3.2574207E-1,1.2405016E0,2.0248096E0,5.006637E-1,1.8437877E-1,1.6963242E0,1.3500748E0,8.478746E-1,-3.45139E-1,-2.509904E-1,-3.4880027E-1,8.672618E-1],"categories":[],"categories_nodes":[],"categories_segments":[],"categories_sizes":[],"default_left":[0,0,0,0,0,0,0,0,0,0,0,0,0,0,0,0,0,0,0,0,0,0,0,0,0,0,0,0,0,0,0,0,0,0,0,0,0,0,0,0,0,0,0,0,0,0,0,0,0,0,0,0,0,0,0,0,0,0,0,0,0,0,0,0,0,0,0,0,0,0,0,0,0,0,0,0,0,0,0,0,0],"id":7,"left_children":[1,3,5,7,9,11,-1,13,15,17,19,21,23,25,27,29,31,33,35,37,39,41,43,-1,45,47,49,51,-1,53,55,57,59,61,63,65,67,69,71,73,75,-1,-1,-1,-1,77,79,-1,-1,-1,-1,-1,-1,-1,-1,-1,-1,-1,-1,-1,-1,-1,-1,-1,-1,-1,-1,-1,-1,-1,-1,-1,-1,-1,-1,-1,-1,-1,-1,-1,-1],"loss_changes":[6.4662575E6,1.21591E5,1.3163225E5,9.779975E4,1.6721525E5,2.6371875E4,0E0,6.102475E4,4.8707656E4,2.1453531E4,9.176125E4,1.997617E4,5.3580625E3,7.2383625E4,1.9956117E4,5.488078E4,4.7362562E4,1.1723451E4,2.2452438E4,3.9469688E4,3.2245125E4,3.6143276E3,1.5869734E4,0E0,5.1984375E3,7.150775E4,2.4186152E4,1.838951E4,0E0,3.335954E4,4.0014625E4,3.57935E4,5.43266E3,1.046673E4,1.7746523E3,1.2604805E4,1.4970844E4,3.0452969E4,5.251928E4,1.685452E4,2.4519875E4,0E0,0E0,0E0,0E0,1.9283359E3,2.9090938E3,0E0,0E0,0E0,0E0,0E0,0E0,0E0,0E0,0E0,0E0,0E0,0E0,0E0,0E0,0E0,0E0,0E0,0E0,0E0,0E0,0E0,0E0,0E0,0E0,0E0,0E0,0E0,0E0,0E0,0E0,0E0,0E0,0E0,0E0],"parents":[2147483647,0,0,1,1,2,2,3,3,4,4,5,5,7,7,8,8,9,9,10,10,11,11,12,12,13,13,14,14,15,15,16,16,17,17,18,18,19,19,20,20,21,21,22,22,24,24,25,25,26,26,27,27,29,29,30,30,31,31,32,32,33,33,34,34,35,35,36,36,37,37,38,38,39,39,40,40,45,45,46,46],"right_children":[2,4,6,8,10,12,-1,14,16,18,20,22,24,26,28,30,32,34,36,38,40,42,44,-1,46,48,50,52,-1,54,56,58,60,62,64,66,68,70,72,74,76,-1,-1,-1,-1,78,80,-1,-1,-1,-1,-1,-1,-1,-1,-1,-1,-1,-1,-1,-1,-1,-1,-1,-1,-1,-1,-1,-1,-1,-1,-1,-1,-1,-1,-1,-1,-1,-1,-1,-1],"split_conditions":[7.3869E2,2.71305E2,1E0,4.154331E4,2.143722E6,-7.417126E-1,-5.480394E-1,1.3976851E-2,6.3842438E1,7.8725275E5,4.08615E2,4.8477313E-1,6.37872E2,1.2043011E2,2.5160616E1,1.3809271E0,5.5594194E-1,6.335793E-3,-9.8897314E-1,7.7273E1,3.8179626E2,9.521132E3,-8.161332E-1,1.1687241E0,-1.1049144E6,-1.2445238E0,-8.6590654E-1,2.444E2,5.0179234E0,-9.934258E-1,2.324E2,4.405002E4,9.237336E4,1.9E0,9.649731E1,-9.939263E-1,8.201473E-3,-9.9309516E-1,1.4129165E0,1.7168885E0,-9.922342E-1,1.0230492E0,-8.2225317E-1,4.3220396E0,5.1485264E-1,1.869004E3,3.6376262E-1,1.0274278E0,1.6179594E0,7.7617496E-1,7.505026E-2,3.4459786E0,9.053648E-2,-5.4892987E-1,1.6244138E0,-9.5248836E-1,4.2574396E0,3.9503484E0,-7.528505E-1,-9.9643975E-1,1.3155838E0,1.24289095E-1,5.12665E-1,-7.763888E-1,3.94248E-1,-2.8769824E-1,1.8136615E0,6.128282E-1,3.0715784E-1,3.2574207E-1,1.2405016E0,2.0248096E0,5.006637E-1,1.8437877E-1,1.6963242E0,1.3500748E0,8.478746E-1,-3.45139E-1,-2.509904E-1,-3.4880027E-1,8.672618E-1],"split_indices":[7,33,8,24,1,38,0,5,28,1,33,43,31,47,34,43,3,14,14,48,2,15,14,0,1,35,21,7,0,14,7,24,15,16,48,37,9,21,17,17,14,0,0,0,0,45,18,0,0,0,0,0,0,0,0,0,0,0,0,0,0,0,0,0,0,0,0,0,0,0,0,0,0,0,0,0,0,0,0,0,0],"split_type":[0,0,0,0,0,0,0,0,0,0,0,0,0,0,0,0,0,0,0,0,0,0,0,0,0,0,0,0,0,0,0,0,0,0,0,0,0,0,0,0,0,0,0,0,0,0,0,0,0,0,0,0,0,0,0,0,0,0,0,0,0,0,0,0,0,0,0,0,0,0,0,0,0,0,0,0,0,0,0,0,0],"sum_hessian":[4.0896E4,1.3625E4,2.7271E4,4.033E3,9.592E3,1.3645E4,1.3626E4,3.857E3,1.76E2,2.866E3,6.726E3,2.1E1,1.3624E4,3.83E3,2.7E1,9.9E1,7.7E1,7.43E2,2.123E3,1.263E3,5.463E3,1E1,1.1E1,5E0,1.3619E4,3.312E3,5.18E2,1.6E1,1.1E1,7.3E1,2.6E1,6.8E1,9E0,7.1E2,3.3E1,5.8E1,2.065E3,8.82E2,3.81E2,2.6E2,5.203E3,3E0,7E0,6E0,5E0,3.029E3,1.059E4,2.673E3,6.39E2,3.17E2,2.01E2,9E0,7E0,2.8E1,4.5E1,4E0,2.2E1,6.4E1,4E0,6E0,3E0,4.08E2,3.02E2,3E1,3E0,8E0,5E1,1.516E3,5.49E2,1.04E2,7.78E2,3.11E2,7E1,2.41E2,1.9E1,2.58E2,4.945E3,7.26E2,2.303E3,1.0586E4,4E0],"tree_param":{"num_deleted":"0","num_feature":"50","num_nodes":"81","size_leaf_vector":"1"}},{"base_weights":[-3.6080338E-3,1.663679E1,-8.279655E0,1.3102277E1,1.8933865E1,-6.1814804E0,-5.2064174E-1,1.8083355E1,8.962468E0,2.4552843E1,1.6767555E1,-6.2567744E0,1.7458694E1,1.7791327E1,6.1024773E1,5.378043E0,1.08768015E1,4.3584393E1,2.347978E1,1.6614876E1,5.2259613E1,-7.0180225E0,-5.7086234E0,4.957189E0,4.688096E1,1.6884403E1,3.1182001E1,4.3636218E-1,7.241441E1,5.824775E0,-1.2648752E1,2.722566E1,1.0394701E1,4.8719723E1,9.296498E0,2.289474E1,5.9540684E1,1.6865105E1,-3.604439E-1,1.5202069E1,8.028325E1,9.4023323E-1,-7.0348063E0,-5.847537E0,-3.882981E0,3.7165543E1,-3.901106E0,3.7139508E-1,6.357922E1,8.72742E-1,-1.3404432E-1,3.147926E0,1.206224E0,1.7225052E0,4.017435E0,2.4503283E-1,8.4789175E-1,-7.976975E-1,4.333508E-1,1.6385721E0,-7.3388344E-1,2.8660008E-1,5.820451E-1,3.1632488E0,1.3958972E0,2.893047E0,-1.1222095E0,1.7846339E0,1.0784371E0,-9.456603E-1,3.6861424E0,7.746345E-1,1.0126876E0,9.154582E-1,-7.9565126E-1,-8.586774E-1,2.5228305E0,7.9694843E-1,4.8186803E0,-3.5086703E-1,-7.3907685E-1,-2.9410866E-1,-8.148315E-3,-1.2811662E-1,-2.9348525E-1,8.533837E-1,2.3973515E0,-6.302507E-1,2.3548322E0,4.1305366E0,9.556074E-1],"categories":[],"categories_nodes":[],"categories_segments":[],"categories_sizes":[],"default_left":[0,0,0,0,0,0,0,0,0,0,0,0,0,0,0,0,0,0,0,0,0,0,0,0,0,0,0,0,0,0,0,0,0,0,0,0,0,0,0,0,0,0,0,0,0,0,0,0,0,0,0,0,0,0,0,0,0,0,0,0,0,0,0,0,0,0,0,0,0,0,0,0,0,0,0,0,0,0,0,0,0,0,0,0,0,0,0,0,0,0,0],"id":8,"left_children":[1,3,5,7,9,11,-1,13,15,17,19,21,23,25,27,29,31,33,35,37,39,41,43,45,47,49,51,-1,53,55,57,59,61,63,65,67,69,71,73,75,77,-1,79,81,83,85,87,-1,89,-1,-1,-1,-1,-1,-1,-1,-1,-1,-1,-1,-1,-1,-1,-1,-1,-1,-1,-1,-1,-1,-1,-1,-1,-1,-1,-1,-1,-1,-1,-1,-1,-1,-1,-1,-1,-1,-1,-1,-1,-1,-1],"loss_changes":[5.6342655E6,1.1007875E5,1.22225875E5,1.1027975E5,9.9812E4,2.4630625E4,0E0,2.9378812E4,2.0024312E4,4.5716E4,3.13455E4,5.6895625E3,1.5946613E4,2.879725E4,8.890301E3,8.29526E3,1.47438125E4,2.0846922E4,4.438825E4,2.516275E4,2.4732164E4,2.6210312E3,2.0026406E3,9.27827E3,8.085006E3,2.5316188E4,3.2560516E4,0E0,1.1363594E3,1.0172109E4,1.9003223E3,1.3031707E4,1.07045E4,2.9994219E4,2.7507154E4,3.54725E4,3.9229758E4,2.682375E4,2.5552486E4,1.4566496E4,1.294718E4,0E0,6.7096875E2,1.4599531E3,1.474415E3,6.9194824E2,1.2131077E4,0E0,6.0274375E3,0E0,0E0,0E0,0E0,0E0,0E0,0E0,0E0,0E0,0E0,0E0,0E0,0E0,0E0,0E0,0E0,0E0,0E0,0E0,0E0,0E0,0E0,0E0,0E0,0E0,0E0,0E0,0E0,0E0,0E0,0E0,0E0,0E0,0E0,0E0,0E0,0E0,0E0,0E0,0E0,0E0,0E0],"parents":[2147483647,0,0,1,1,2,2,3,3,4,4,5,5,7,7,8,8,9,9,10,10,11,11,12,12,13,13,14,14,15,15,16,16,17,17,18,18,19,19,20,20,21,21,22,22,23,23,24,24,25,25,26,26,28,28,29,29,30,30,31,31,32,32,33,33,34,34,35,35,36,36,37,37,38,38,39,39,40,40,42,42,43,43,44,44,45,45,46,46,48,48],"right_children":[2,4,6,8,10,12,-1,14,16,18,20,22,24,26,28,30,32,34,36,38,40,42,44,46,48,50,52,-1,54,56,58,60,62,64,66,68,70,72,74,76,78,-1,80,82,84,86,88,-1,90,-1,-1,-1,-1,-1,-1,-1,-1,-1,-1,-1,-1,-1,-1,-1,-1,-1,-1,-1,-1,-1,-1,-1,-1,-1,-1,-1,-1,-1,-1,-1,-1,-1,-1,-1,-1,-1,-1,-1,-1,-1,-1],"split_conditions":[7.375005E2,1.5523882E6,2.1066904E0,2.537E2,3.2782635E2,8E-1,-5.2064174E-1,1.3976851E-2,3.06302E2,1.1663115E4,5.215161E1,-5.3668606E-1,4.0286274E0,-6.5757026E-4,4.97607E0,3.307581E0,-9.8897314E-1,2.3386343E-1,7.75E0,2.3709235E2,3.282533E-3,-9.9235606E-1,6.934767E4,2.5072093E0,1.6624733E3,6.679718E4,6E-1,4.3636218E-1,2.8548124E-1,1.3809271E0,-9.414753E-1,3.1E0,-1.7180362E0,2.851375E1,8.8E-1,-2.2851299E-1,3.8552746E1,2.1436531E4,6.6E0,2.6564014E3,3.36919E3,9.4023323E-1,1.6020139E6,8.015583E2,3.478E1,8.0165894E2,2.712824E-3,3.7139508E-1,1.1233841E1,8.72742E-1,-1.3404432E-1,3.147926E0,1.206224E0,1.7225052E0,4.017435E0,2.4503283E-1,8.4789175E-1,-7.976975E-1,4.333508E-1,1.6385721E0,-7.3388344E-1,2.8660008E-1,5.820451E-1,3.1632488E0,1.3958972E0,2.893047E0,-1.1222095E0,1.7846339E0,1.0784371E0,-9.456603E-1,3.6861424E0,7.746345E-1,1.0126876E0,9.154582E-1,-7.9565126E-1,-8.586774E-1,2.5228305E0,7.9694843E-1,4.8186803E0,-3.5086703E-1,-7.3907685E-1,-2.9410866E-1,-8.148315E-3,-1.2811662E-1,-2.9348525E-1,8.533837E-1,2.3973515E0,-6.302507E-1,2.3548322E0,4.1305366E0,9.556074E-1],"split_indices":[33,1,36,7,45,12,0,5,29,19,34,36,4,23,34,43,14,3,16,47,5,5,24,4,2,15,16,0,3,43,36,16,35,34,12,43,22,15,16,2,24,0,1,0,16,2,5,0,4,0,0,0,0,0,0,0,0,0,0,0,0,0,0,0,0,0,0,0,0,0,0,0,0,0,0,0,0,0,0,0,0,0,0,0,0,0,0,0,0,0,0],"split_type":[0,0,0,0,0,0,0,0,0,0,0,0,0,0,0,0,0,0,0,0,0,0,0,0,0,0,0,0,0,0,0,0,0,0,0,0,0,0,0,0,0,0,0,0,0,0,0,0,0,0,0,0,0,0,0,0,0,0,0,0,0,0,0,0,0,0,0,0,0,0,0,0,0,0,0,0,0,0,0,0,0,0,0,0,0,0,0,0,0,0,0],"sum_hessian":[4.091E4,1.3588E4,2.7322E4,5.355E3,8.233E3,1.3776E4,1.3546E4,2.429E3,2.926E3,2.288E3,5.945E3,1.3733E4,4.3E1,2.414E3,1.5E1,1.02E3,1.906E3,1.2E2,2.168E3,5.921E3,2.4E1,5.744E3,7.989E3,3.1E1,1.2E1,2.263E3,1.51E2,3E0,1.2E1,9.96E2,2.4E1,5.3E1,1.853E3,1.04E2,1.6E1,2.135E3,3.3E1,5.835E3,8.6E1,1.1E1,1.3E1,3E0,5.741E3,7.422E3,5.67E2,6E0,2.5E1,4E0,8E0,2.199E3,6.4E1,2.6E1,1.25E2,3E0,9E0,9.21E2,7.5E1,2.1E1,3E0,4.7E1,6E0,3.92E2,1.461E3,6E1,4.4E1,6E0,1E1,1.98E2,1.937E3,5E0,2.8E1,4.157E3,1.678E3,3.9E1,4.7E1,6E0,5E0,3E0,1E1,5.73E3,1.1E1,7.377E3,4.5E1,3.42E2,2.25E2,3E0,3E0,2.2E1,3E0,5E0,3E0],"tree_param":{"num_deleted":"0","num_feature":"50","num_nodes":"91","size_leaf_vector":"1"}},{"base_weights":[-1.0371896E-1,1.555016E1,-7.879944E0,7.095357E0,1.6543922E1,-5.875573E0,-4.9474564E-1,2.0952978E1,5.912315E0,2.0335934E1,1.4962272E1,1.6623205E1,-5.926183E0,5.030495E1,1.6926693E1,8.435985E0,7.1669585E-1,4.3145752E1,1.9693346E1,7.4842505E0,1.6247446E1,4.9469414E0,3.8165195E0,-6.4475713E0,-5.3298216E0,3.276385E0,-1.5158539E-2,2.1901285E1,-5.4282174E0,3.6465967E0,8.134492E0,1.2975318E1,-9.946822E-1,9.617269E0,5.5286922E1,1.7869377E1,2.5447704E1,2.4957735E1,6.87549E0,2.1778717E1,1.5334267E1,-7.6689285E-1,2.7979637E1,-6.4704113E0,1.0810228E1,-4.469215E0,-5.7572346E0,7.1992636E-1,2.4867723E0,-8.3197737E-1,8.076998E-1,-1.0846628E0,4.3023515E-1,-1.2536979E-1,1.2466156E0,-1.0990007E0,5.461465E-3,3.2979722E0,-8.78602E-1,4.0474596E0,1.6686219E0,8.6282444E-1,1.9307549E0,2.0996482E0,1.1110169E0,-4.4196582E-1,1.7223002E0,1.9971167E-1,4.779082E-1,1.2026039E0,2.6764053E-1,6.580569E-1,8.772878E-1,2.4419932E0,-7.572347E-1,-3.692746E-2,-3.2474074E-1,2.339009E0,-5.637032E-1,-2.3994072E-1,-9.502127E-2,-3.078445E-1,-2.5656036E-1],"categories":[],"categories_nodes":[],"categories_segments":[],"categories_sizes":[],"default_left":[0,0,0,0,0,0,0,0,0,0,0,0,0,0,0,0,0,0,0,0,0,0,0,0,0,0,0,0,0,0,0,0,0,0,0,0,0,0,0,0,0,0,0,0,0,0,0,0,0,0,0,0,0,0,0,0,0,0,0,0,0,0,0,0,0,0,0,0,0,0,0,0,0,0,0,0,0,0,0,0,0,0,0],"id":9,"left_children":[1,3,5,7,9,11,-1,13,15,17,19,21,23,25,27,29,31,33,35,37,39,41,-1,43,45,-1,-1,47,49,-1,51,53,55,57,59,61,63,65,67,69,71,-1,73,75,77,79,81,-1,-1,-1,-1,-1,-1,-1,-1,-1,-1,-1,-1,-1,-1,-1,-1,-1,-1,-1,-1,-1,-1,-1,-1,-1,-1,-1,-1,-1,-1,-1,-1,-1,-1,-1,-1],"loss_changes":[4.9770965E6,1.1389625E5,1.10266625E5,2.3300672E4,7.251525E4,1.56936875E4,0E0,1.2377879E4,1.7274688E4,5.148525E4,8.2257875E4,2.1226135E4,4.2140625E3,1.0041523E4,1.12411875E4,1.6646418E4,9.077091E3,3.894808E4,3.601375E4,1.3217422E4,3.660575E4,1.304518E4,0E0,2.9418438E3,2.3203906E3,0E0,0E0,1.6401773E4,4.8661846E3,0E0,1.2583754E4,9.876472E3,8.807648E3,4.252531E4,3.721575E4,3.2920562E4,4.3594125E4,1.3775408E4,9.374961E3,3.8479938E4,2.99515E4,0E0,1.2437615E4,1.01246875E3,8.474662E3,1.7868438E3,1.0331094E3,0E0,0E0,0E0,0E0,0E0,0E0,0E0,0E0,0E0,0E0,0E0,0E0,0E0,0E0,0E0,0E0,0E0,0E0,0E0,0E0,0E0,0E0,0E0,0E0,0E0,0E0,0E0,0E0,0E0,0E0,0E0,0E0,0E0,0E0,0E0,0E0],"parents":[2147483647,0,0,1,1,2,2,3,3,4,4,5,5,7,7,8,8,9,9,10,10,11,11,12,12,13,13,14,14,15,15,16,16,17,17,18,18,19,19,20,20,21,21,23,23,24,24,27,27,28,28,30,30,31,31,32,32,33,33,34,34,35,35,36,36,37,37,38,38,39,39,40,40,42,42,43,43,44,44,45,45,46,46],"right_children":[2,4,6,8,10,12,-1,14,16,18,20,22,24,26,28,30,32,34,36,38,40,42,-1,44,46,-1,-1,48,50,-1,52,54,56,58,60,62,64,66,68,70,72,-1,74,76,78,80,82,-1,-1,-1,-1,-1,-1,-1,-1,-1,-1,-1,-1,-1,-1,-1,-1,-1,-1,-1,-1,-1,-1,-1,-1,-1,-1,-1,-1,-1,-1,-1,-1,-1,-1,-1,-1],"split_conditions":[7.3869E2,-7.6803E-1,1E0,1.10493376E-4,2.711318E2,7.35796E2,-4.9474564E-1,1.0585097E0,2.3281038E0,-5.399079E2,-9.4215584E-1,3.68644E4,2.3081433E3,8.5935905E1,7.79211E1,2.0627786E2,6.436883E1,-9.9180424E-1,-1.2445748E0,-9.8897314E-1,-9.9175847E-1,-1.860843E2,3.8165195E0,3.021864E-1,-1.0254494E6,3.276385E0,-1.5158539E-2,2.4896346E4,8.993269E1,3.6465967E0,-9.9201745E-1,-1.7177119E0,2.4165215E2,-2.58199E-1,-8.7053216E-1,4.257601E4,1.3549855E0,-2.3395784E-1,9.036441E5,2.2029567E0,-1.2447158E0,-7.6689285E-1,-1.2428467E0,-1.7186791E0,4.4444443E1,6.884799E4,-1.244049E0,7.1992636E-1,2.4867723E0,-8.3197737E-1,8.076998E-1,-1.0846628E0,4.3023515E-1,-1.2536979E-1,1.2466156E0,-1.0990007E0,5.461465E-3,3.2979722E0,-8.78602E-1,4.0474596E0,1.6686219E0,8.6282444E-1,1.9307549E0,2.0996482E0,1.1110169E0,-4.4196582E-1,1.7223002E0,1.9971167E-1,4.779082E-1,1.2026039E0,2.6764053E-1,6.580569E-1,8.772878E-1,2.4419932E0,-7.572347E-1,-3.692746E-2,-3.2474074E-1,2.339009E0,-5.637032E-1,-2.3994072E-1,-9.502127E-2,-3.078445E-1,-2.5656036E-1],"split_indices":[7,38,8,27,41,29,0,6,6,0,36,49,25,48,28,31,48,14,35,14,23,0,0,18,1,0,0,19,48,0,14,35,45,42,14,24,4,32,1,17,35,0,35,35,28,24,35,0,0,0,0,0,0,0,0,0,0,0,0,0,0,0,0,0,0,0,0,0,0,0,0,0,0,0,0,0,0,0,0,0,0,0,0],"split_type":[0,0,0,0,0,0,0,0,0,0,0,0,0,0,0,0,0,0,0,0,0,0,0,0,0,0,0,0,0,0,0,0,0,0,0,0,0,0,0,0,0,0,0,0,0,0,0,0,0,0,0,0,0,0,0,0,0,0,0,0,0,0,0,0,0,0,0,0,0,0,0,0,0,0,0,0,0,0,0,0,0,0,0],"sum_hessian":[4.0885E4,1.3569E4,2.7316E4,1.428E3,1.2141E4,1.3696E4,1.362E4,1.11E2,1.317E3,3.57E3,8.571E3,3E1,1.3666E4,1.2E1,9.9E1,8.86E2,4.31E2,9.6E1,3.474E3,1.258E3,7.313E3,2.6E1,4E0,7.286E3,6.38E3,9E0,3E0,8.1E1,1.8E1,3E0,8.83E2,5.2E1,3.79E2,2.6E1,7E1,2.641E3,8.33E2,4.1E1,1.217E3,1.033E3,6.28E3,1.4E1,1.2E1,7.277E3,9E0,2.121E3,4.259E3,6.5E1,1.6E1,1.2E1,6E0,1.3E1,8.7E2,2.3E1,2.9E1,1.8E1,3.61E2,8E0,1.8E1,3.1E1,3.9E1,2.567E3,7.4E1,1.34E2,6.99E2,9E0,3.2E1,5.88E2,6.29E2,9.07E2,1.26E2,3.171E3,3.109E3,8E0,4E0,3.1E1,7.246E3,3E0,6E0,1.879E3,2.42E2,2.594E3,1.665E3],"tree_param":{"num_deleted":"0","num_feature":"50","num_nodes":"83","size_leaf_vector":"1"}},{"base_weights":[9.878509E-2,1.5345231E1,-7.4925466E0,1.9461124E1,1.3638319E1,-5.597879E0,-4.698277E-1,1.786697E1,3.25961E1,7.8942504E0,1.5932266E1,-5.650112E0,2.8593353E1,9.719394E0,1.8922844E1,4.214348E1,1.9406841E1,1.1342762E1,5.899514E0,1.1928447E1,1.723486E1,-6.320691E0,-5.1666584E0,5.992177E1,-9.912365E-1,3.4396225E1,7.245232E0,1.933924E1,-2.4034023E0,1.9372738E1,5.1530853E1,3.4034187E1,1.5485145E0,5.89884E0,1.423868E1,8.062654E0,2.5381677E0,5.4370495E1,1.1437782E1,3.702119E1,1.6904726E1,-1.6735893E1,-6.2829604E0,-4.426386E0,-5.497064E0,4.554039E0,2.9049784E1,2.346096E0,2.1912633E-1,-4.9999914E-1,5.161783E-1,8.910739E-1,1.2103652E0,-5.498969E-1,1.8826694E0,-2.8897923E-1,1.9338201E0,2.8639915E0,-2.6321518E-1,7.3326176E-1,3.26238E0,-7.679116E-1,1.6781542E0,2.2687488E0,2.539054E-1,6.1153543E-1,1.3034943E0,-1.5838598E-1,4.4927892E-1,7.4476737E-1,5.3884238E-2,8.7370217E-1,4.290995E0,-1.4482819E-1,6.0619843E-1,2.2638443E0,2.114687E-1,8.2735455E-1,1.5370574E0,3.6287196E-2,-9.932966E-1,-3.1477907E-1,4.654317E-1,-2.3259239E-1,-9.654119E-2,6.559976E-1,-2.7548376E-1,-8.4429187E-1,3.0004165E0],"categories":[],"categories_nodes":[],"categories_segments":[],"categories_sizes":[],"default_left":[0,0,0,0,0,0,0,0,0,0,0,0,0,0,0,0,0,0,0,0,0,0,0,0,0,0,0,0,0,0,0,0,0,0,0,0,0,0,0,0,0,0,0,0,0,0,0,0,0,0,0,0,0,0,0,0,0,0,0,0,0,0,0,0,0,0,0,0,0,0,0,0,0,0,0,0,0,0,0,0,0,0,0,0,0,0,0,0,0],"id":10,"left_children":[1,3,5,7,9,11,-1,13,15,17,19,21,23,25,27,29,31,33,35,37,39,41,43,45,-1,47,49,51,53,55,57,59,61,63,65,67,69,71,73,75,77,79,81,83,85,-1,87,-1,-1,-1,-1,-1,-1,-1,-1,-1,-1,-1,-1,-1,-1,-1,-1,-1,-1,-1,-1,-1,-1,-1,-1,-1,-1,-1,-1,-1,-1,-1,-1,-1,-1,-1,-1,-1,-1,-1,-1,-1,-1],"loss_changes":[4.724309E6,9.5053E4,9.824925E4,8.264575E4,1.26288125E5,2.4556844E4,0E0,3.03275E4,5.3196844E4,1.8779469E4,3.554275E4,4.3885625E3,3.304604E4,2.4717898E4,2.7922875E4,5.20065E4,4.7485758E4,1.57264375E4,1.2615586E4,3.4482125E4,3.3139875E4,2.1364062E3,1.91475E3,9.84734E3,0E0,1.3699102E4,1.9904547E4,2.231375E4,2.141188E4,3.6156195E4,5.7446688E4,5.949225E4,4.544205E4,1.1104298E4,1.5214219E4,1.0984625E4,1.2290712E4,2.0537102E4,1.6442516E4,2.2543977E4,2.4659E4,1.1094438E3,1.1781719E3,1.3705547E3,1.358125E3,0E0,1.2394402E4,0E0,0E0,0E0,0E0,0E0,0E0,0E0,0E0,0E0,0E0,0E0,0E0,0E0,0E0,0E0,0E0,0E0,0E0,0E0,0E0,0E0,0E0,0E0,0E0,0E0,0E0,0E0,0E0,0E0,0E0,0E0,0E0,0E0,0E0,0E0,0E0,0E0,0E0,0E0,0E0,0E0,0E0],"parents":[2147483647,0,0,1,1,2,2,3,3,4,4,5,5,7,7,8,8,9,9,10,10,11,11,12,12,13,13,14,14,15,15,16,16,17,17,18,18,19,19,20,20,21,21,22,22,23,23,25,25,26,26,27,27,28,28,29,29,30,30,31,31,32,32,33,33,34,34,35,35,36,36,37,37,38,38,39,39,40,40,41,41,42,42,43,43,44,44,46,46],"right_children":[2,4,6,8,10,12,-1,14,16,18,20,22,24,26,28,30,32,34,36,38,40,42,44,46,-1,48,50,52,54,56,58,60,62,64,66,68,70,72,74,76,78,80,82,84,86,-1,88,-1,-1,-1,-1,-1,-1,-1,-1,-1,-1,-1,-1,-1,-1,-1,-1,-1,-1,-1,-1,-1,-1,-1,-1,-1,-1,-1,-1,-1,-1,-1,-1,-1,-1,-1,-1,-1,-1,-1,-1,-1,-1],"split_conditions":[-7.073939E-1,2.719E2,1E0,3.1430558E6,-9.400895E-1,7E-1,-4.698277E-1,-7.6803E-1,2.4513884E2,7.672436E1,7.0393276E3,-5.3668606E-1,1.2297337E-1,-6.2136143E-1,3.2686575E2,7.6E-1,9.4E-1,3.108E2,-8.031168E-1,3.02105E2,-5.041394E-1,-8.3000517E-1,-1.1049144E6,-4.9486805E-2,-9.912365E-1,2.424173E2,-2.7567196E-1,-1.2447845E0,-4.3010752E-4,2.29502E3,8.674523E1,8.4E-1,1.9620865E1,-1.15839E0,1.2419823E-3,-4.2185518E-1,3.634106E1,-8.6916035E-1,1.9949939E0,2.327731E0,-7.092386E-1,2.8279683E3,2.3751102E-1,6.884799E4,2.8E0,4.554039E0,-1.2425998E0,2.346096E0,2.1912633E-1,-4.9999914E-1,5.161783E-1,8.910739E-1,1.2103652E0,-5.498969E-1,1.8826694E0,-2.8897923E-1,1.9338201E0,2.8639915E0,-2.6321518E-1,7.3326176E-1,3.26238E0,-7.679116E-1,1.6781542E0,2.2687488E0,2.539054E-1,6.1153543E-1,1.3034943E0,-1.5838598E-1,4.4927892E-1,7.4476737E-1,5.3884238E-2,8.7370217E-1,4.290995E0,-1.4482819E-1,6.0619843E-1,2.2638443E0,2.114687E-1,8.2735455E-1,1.5370574E0,3.6287196E-2,-9.932966E-1,-3.1477907E-1,4.654317E-1,-2.3259239E-1,-9.654119E-2,6.559976E-1,-2.7548376E-1,-8.4429187E-1,3.0004165E0],"split_indices":[38,7,8,1,36,12,0,38,31,48,15,36,37,3,0,12,12,40,14,33,43,36,1,3,0,31,3,35,5,24,48,12,0,43,14,32,22,5,6,37,38,15,18,24,16,0,35,0,0,0,0,0,0,0,0,0,0,0,0,0,0,0,0,0,0,0,0,0,0,0,0,0,0,0,0,0,0,0,0,0,0,0,0,0,0,0,0,0,0],"split_type":[0,0,0,0,0,0,0,0,0,0,0,0,0,0,0,0,0,0,0,0,0,0,0,0,0,0,0,0,0,0,0,0,0,0,0,0,0,0,0,0,0,0,0,0,0,0,0,0,0,0,0,0,0,0,0,0,0,0,0,0,0,0,0,0,0,0,0,0,0,0,0,0,0,0,0,0,0,0,0,0,0,0,0,0,0,0,0,0,0],"sum_hessian":[4.0816E4,1.3567E4,2.7249E4,3.974E3,9.593E3,1.366E4,1.3589E4,3.546E3,4.28E2,2.739E3,6.854E3,1.364E4,2E1,4.08E2,3.138E3,2.47E2,1.81E2,1.002E3,1.737E3,1.685E3,5.169E3,5.709E3,7.931E3,1.2E1,8E0,3.6E1,3.72E2,3.078E3,6E1,7.3E1,1.74E2,9.9E1,8.2E1,3.49E2,6.53E2,1.056E3,6.81E2,1.8E1,1.667E3,8.3E1,5.086E3,1.9E1,5.69E3,2.452E3,5.479E3,5E0,7E0,2.5E1,1.1E1,5.6E1,3.16E2,2.35E3,7.28E2,5E1,1E1,3.2E1,4.1E1,1.58E2,1.6E1,6.2E1,3.7E1,5.4E1,2.8E1,6E0,3.43E2,5.6E2,9.3E1,8E1,9.76E2,7.1E1,6.1E2,9E0,9E0,7.6E1,1.591E3,6.6E1,1.7E1,4.96E3,1.26E2,3E0,1.6E1,5.686E3,4E0,2.248E3,2.04E2,3E0,5.476E3,3E0,4E0],"tree_param":{"num_deleted":"0","num_feature":"50","num_nodes":"89","size_leaf_vector":"1"}},{"base_weights":[2.168676E-1,1.4889626E1,-7.1368413E0,1.972978E1,1.3407425E1,-5.341945E0,-8.911316E0,3.8906887E1,1.8991505E1,7.6193957E0,1.6067617E1,2.8660673E1,-5.3996882E0,-8.920886E0,-1.9498607E0,1.8328018E1,6.6114006E1,2.9774387E1,1.7845695E1,1.4810801E1,6.71288E0,2.2599596E1,1.4040212E1,-4.891697E0,5.4854164E1,-5.4234743E0,1.4908838E1,-5.844557E0,-8.925656E0,5.025616E-1,-5.584586E0,3.7255E1,-1.290083E0,8.76003E1,1.0132628E1,2.612778E1,7.350176E1,1.7582218E1,5.154432E1,4.00766E1,1.2679965E1,1.1030851E1,5.7607245E0,2.382401E1,9.2206135E0,1.5794043E1,1.1578457E1,8.6129564E-1,-7.67577E-1,5.109098E-1,3.6772954E0,-5.9787025E0,-4.828659E0,-3.8147025E0,3.602907E0,5.547497E0,-9.955658E0,-8.927707E0,1.2122695E-2,-7.985387E0,6.371266E-2,9.735171E-1,3.5800588E0,1.0304291E0,5.0154185E0,-1.2197866E0,4.2044253E0,1.0159289E0,2.7112386E0,4.0617075E-2,4.741367E0,9.1019243E-1,-1.4472859E-1,1.1367802E-2,3.1799822E0,3.3536118E-2,2.7900207E0,5.719662E-1,3.128454E0,-5.777622E-2,6.811502E-1,-4.139503E-1,3.0569038E-1,3.871456E-1,1.2484007E0,1.024143E0,-4.0645695E-1,6.1830425E-1,9.1378736E-1,3.0759177E-1,7.1800226E-1,-7.693181E-1,-2.9794142E-1,-2.5427064E-1,-1.8370995E-1,-6.007781E-1,8.808061E-1,4.8708516E-1,-4.292059E-4,-1.9439165E-1,-5.4516834E-1,-5.5497587E-1,-4.4616786E-1,-1.2323721E-1,-5.212558E-1],"categories":[],"categories_nodes":[],"categories_segments":[],"categories_sizes":[],"default_left":[0,0,0,0,0,0,0,0,0,0,0,0,0,0,0,0,0,0,0,0,0,0,0,0,0,0,0,0,0,0,0,0,0,0,0,0,0,0,0,0,0,0,0,0,0,0,0,0,0,0,0,0,0,0,0,0,0,0,0,0,0,0,0,0,0,0,0,0,0,0,0,0,0,0,0,0,0,0,0,0,0,0,0,0,0,0,0,0,0,0,0,0,0,0,0,0,0,0,0,0,0,0,0,0,0],"id":11,"left_children":[1,3,5,7,9,11,13,15,17,19,21,23,25,27,29,31,33,35,37,39,41,43,45,47,49,51,53,55,57,-1,59,61,-1,63,65,67,69,71,73,75,77,79,81,83,85,87,89,-1,-1,-1,-1,91,93,95,-1,97,99,101,-1,103,-1,-1,-1,-1,-1,-1,-1,-1,-1,-1,-1,-1,-1,-1,-1,-1,-1,-1,-1,-1,-1,-1,-1,-1,-1,-1,-1,-1,-1,-1,-1,-1,-1,-1,-1,-1,-1,-1,-1,-1,-1,-1,-1,-1,-1],"loss_changes":[4.389554E6,9.71705E4,8.6264375E4,4.4306E4,1.6002212E5,2.66095E4,8.8925E2,6.428714E4,3.734475E4,2.1261594E4,9.403525E4,2.0486963E4,6.5785312E3,1.46E2,9.280988E2,5.775882E4,5.924425E4,4.479036E4,2.371675E4,1.9190992E4,1.1907109E4,2.7396125E4,2.3301625E4,2.8090706E3,1.0086332E4,4.4080312E3,1.74023E4,1.1796829E3,2.58375E2,0E0,2.743138E2,2.7916875E4,0E0,2.856875E4,4.0361004E4,4.328692E4,3.401658E4,3.510975E4,1.2970656E4,1.730602E4,2.0259082E4,1.6601184E4,1.1888172E4,2.8208125E4,2.810954E4,2.6772688E4,3.4129156E4,0E0,0E0,0E0,0E0,1.2048594E3,1.9050469E3,2.4958728E3,0E0,1.641804E2,5.9640137E1,2.7375E1,0E0,1.3464221E2,0E0,0E0,0E0,0E0,0E0,0E0,0E0,0E0,0E0,0E0,0E0,0E0,0E0,0E0,0E0,0E0,0E0,0E0,0E0,0E0,0E0,0E0,0E0,0E0,0E0,0E0,0E0,0E0,0E0,0E0,0E0,0E0,0E0,0E0,0E0,0E0,0E0,0E0,0E0,0E0,0E0,0E0,0E0,0E0,0E0],"parents":[2147483647,0,0,1,1,2,2,3,3,4,4,5,5,6,6,7,7,8,8,9,9,10,10,11,11,12,12,13,13,14,14,15,15,16,16,17,17,18,18,19,19,20,20,21,21,22,22,23,23,24,24,25,25,26,26,27,27,28,28,30,30,31,31,33,33,34,34,35,35,36,36,37,37,38,38,39,39,40,40,41,41,42,42,43,43,44,44,45,45,46,46,51,51,52,52,53,53,55,55,56,56,57,57,59,59],"right_children":[2,4,6,8,10,12,14,16,18,20,22,24,26,28,30,32,34,36,38,40,42,44,46,48,50,52,54,56,58,-1,60,62,-1,64,66,68,70,72,74,76,78,80,82,84,86,88,90,-1,-1,-1,-1,92,94,96,-1,98,100,102,-1,104,-1,-1,-1,-1,-1,-1,-1,-1,-1,-1,-1,-1,-1,-1,-1,-1,-1,-1,-1,-1,-1,-1,-1,-1,-1,-1,-1,-1,-1,-1,-1,-1,-1,-1,-1,-1,-1,-1,-1,-1,-1,-1,-1,-1,-1],"split_conditions":[7.375005E2,2.424173E2,4.016455E3,-9.9386495E-1,-9.366365E-1,-7.417126E-1,7.060692E-2,4.928279E-3,-1.7183406E0,-9.8865706E-1,4.1616623E2,6.386533E-1,9.2E-1,3.96985E3,9.620798E3,-2.9496747E-1,1.3132108E2,5.2805245E-1,1.3976851E-2,4.0456013E3,-9.872466E-1,6.667718E-1,-7.912622E-1,-2.1438572E-1,4.8875477E1,2.277191E3,3.5127145E-1,3.6410046E0,4.2506978E-2,5.025616E-1,7.660358E1,-1.2442143E0,-1.290083E0,7.1907736E-4,1.6896695E2,3.197805E-1,-7.622038E-1,1.9E0,1.2568548E4,2.7611305E-3,9.678337E-1,-9.134839E-1,2.4771579E2,1.3671875E1,2.3344104E4,3.7E0,6.788526E-1,8.6129564E-1,-7.67577E-1,5.109098E-1,3.6772954E0,-6.7558783E-1,9.415289E-1,5.590718E1,3.602907E0,3.2252377E1,3.79642E3,-1.6432178E-1,1.2122695E-2,6.76377E-1,6.371266E-2,9.735171E-1,3.5800588E0,1.0304291E0,5.0154185E0,-1.2197866E0,4.2044253E0,1.0159289E0,2.7112386E0,4.0617075E-2,4.741367E0,9.1019243E-1,-1.4472859E-1,1.1367802E-2,3.1799822E0,3.3536118E-2,2.7900207E0,5.719662E-1,3.128454E0,-5.777622E-2,6.811502E-1,-4.139503E-1,3.0569038E-1,3.871456E-1,1.2484007E0,1.024143E0,-4.0645695E-1,6.1830425E-1,9.1378736E-1,3.0759177E-1,7.1800226E-1,-7.693181E-1,-2.9794142E-1,-2.5427064E-1,-1.8370995E-1,-6.007781E-1,8.808061E-1,4.8708516E-1,-4.292059E-4,-1.9439165E-1,-5.4516834E-1,-5.5497587E-1,-4.4616786E-1,-1.2323721E-1,-5.212558E-1],"split_indices":[33,31,45,5,36,38,18,42,35,5,45,43,12,40,15,17,47,3,5,11,14,42,14,43,22,33,3,4,18,0,48,35,0,27,47,32,38,10,49,9,18,30,45,20,49,16,13,0,0,0,0,38,13,22,0,6,7,18,0,13,0,0,0,0,0,0,0,0,0,0,0,0,0,0,0,0,0,0,0,0,0,0,0,0,0,0,0,0,0,0,0,0,0,0,0,0,0,0,0,0,0,0,0,0,0],"split_type":[0,0,0,0,0,0,0,0,0,0,0,0,0,0,0,0,0,0,0,0,0,0,0,0,0,0,0,0,0,0,0,0,0,0,0,0,0,0,0,0,0,0,0,0,0,0,0,0,0,0,0,0,0,0,0,0,0,0,0,0,0,0,0,0,0,0,0,0,0,0,0,0,0,0,0,0,0,0,0,0,0,0,0,0,0,0,0,0,0,0,0,0,0,0,0,0,0,0,0,0,0,0,0,0,0],"sum_hessian":[4.068E4,1.3581E4,2.7099E4,3.181E3,1.04E4,1.3474E4,1.3625E4,1.16E2,3.065E3,3.276E3,7.124E3,2.2E1,1.3452E4,1.3606E4,1.9E1,6.7E1,4.9E1,2.92E2,2.773E3,3.65E2,2.911E3,1.685E3,5.439E3,1E1,1.2E1,1.3437E4,1.5E1,2.3E1,1.3583E4,4E0,1.5E1,4.7E1,2E1,3.5E1,1.4E1,2.71E2,2.1E1,2.753E3,2E1,2.7E1,3.38E2,5.24E2,2.387E3,1.543E3,1.42E2,3.173E3,2.266E3,3E0,7E0,4E0,8E0,6.945E3,6.492E3,1.2E1,3E0,6E0,1.7E1,1.358E4,3E0,1.1E1,4E0,3.2E1,1.5E1,6E0,2.9E1,1E1,4E0,2.26E2,4.5E1,5E0,1.6E1,2.672E3,8.1E1,4E0,1.6E1,8E0,1.9E1,3.31E2,7E0,9.2E1,4.32E2,5.8E1,2.329E3,1.03E2,1.44E3,8.6E1,5.6E1,1.335E3,1.838E3,7.69E2,1.497E3,1.3E1,6.932E3,5.308E3,1.184E3,9E0,3E0,3E0,3E0,3E0,1.4E1,2.2E1,1.3558E4,4E0,7E0],"tree_param":{"num_deleted":"0","num_feature":"50","num_nodes":"105","size_leaf_vector":"1"}},{"base_weights":[5.5958003E-2,1.3834109E1,-6.792779E0,1.0499175E1,1.58548765E1,-5.079407E0,-8.464887E0,1.5315281E1,7.353811E0,2.0649942E1,1.4100407E1,-5.139354E0,1.1824379E1,-4.077384E0,-8.478589E0,1.7541664E1,9.6011915E0,5.530994E0,1.0145192E1,2.3900354E1,1.581746E1,1.4357856E1,-6.811887E0,-5.746462E0,-4.690699E0,6.611865E0,3.3742032E0,-1.5218868E0,-8.191033E0,-4.991538E-2,-8.481224E0,1.8155869E1,-1.2255383E1,7.1138215E0,2.7265066E1,5.1393356E0,2.214116E1,3.6586693E1,9.720474E0,2.5240454E1,6.31454E0,3.1393244E1,1.3488491E1,1.3552969E1,1.9785774E1,-9.528506E0,2.2222192E0,1.3950372E1,-5.7765503E0,-5.286368E0,-4.3039336E0,-1.8126721E0,3.2825222E1,4.4021055E-1,-3.530231E0,-5.2446157E-1,-2.78756E-2,-8.485486E0,-4.7457395E0,1.3348168E0,7.831437E-1,5.567935E-1,-1.1407623E0,7.5878225E-2,6.823949E-1,6.700542E-1,2.9485726E0,5.059797E-1,1.9784471E-1,6.228466E-2,1.8566035E0,2.005999E-1,2.565243E0,5.8679336E-1,2.0840108E-1,1.9316647E0,1.1560317E0,-9.005375E-1,1.1144319E0,1.1266216E0,3.2577538E0,-1.2773791E-1,7.717748E-1,6.738996E-1,3.8922079E0,7.266418E-1,1.3919132E0,3.3250076E-1,-8.795218E-1,2.947369E0,-9.178015E-1,-2.8713024E-1,-1.1406914E0,5.562412E-1,-2.6558313E-1,-4.4096358E-2,-2.1886837E-1,1.8170575E0,-3.2641894E-1,3.0940912E0,3.683453E-1,-4.2624035E-1,1.8057015E-2,-5.1599663E-1,-4.2402932E-1,-3.6110982E-2,-4.8361808E-1],"categories":[],"categories_nodes":[],"categories_segments":[],"categories_sizes":[],"default_left":[0,0,0,0,0,0,0,0,0,0,0,0,0,0,0,0,0,0,0,0,0,0,0,0,0,0,0,0,0,0,0,0,0,0,0,0,0,0,0,0,0,0,0,0,0,0,0,0,0,0,0,0,0,0,0,0,0,0,0,0,0,0,0,0,0,0,0,0,0,0,0,0,0,0,0,0,0,0,0,0,0,0,0,0,0,0,0,0,0,0,0,0,0,0,0,0,0,0,0,0,0,0,0,0,0,0,0],"id":12,"left_children":[1,3,5,7,9,11,13,15,17,19,21,23,25,27,29,31,33,35,37,39,41,43,45,47,49,51,-1,53,55,-1,57,59,61,63,65,67,69,71,73,75,77,79,81,83,85,87,-1,89,91,93,95,97,99,-1,101,-1,-1,103,105,-1,-1,-1,-1,-1,-1,-1,-1,-1,-1,-1,-1,-1,-1,-1,-1,-1,-1,-1,-1,-1,-1,-1,-1,-1,-1,-1,-1,-1,-1,-1,-1,-1,-1,-1,-1,-1,-1,-1,-1,-1,-1,-1,-1,-1,-1,-1,-1],"loss_changes":[3.8602938E6,9.13685E4,7.8243125E4,7.756619E4,7.0844E4,1.3739E4,7.955E2,2.5590406E4,1.5736016E4,3.516425E4,3.344625E4,3.6360938E3,1.3472484E4,4.596217E2,2.623125E2,2.6870094E4,2.484646E4,1.211384E4,1.33966875E4,3.1676188E4,3.2691625E4,2.64615E4,1.1002523E4,3.4649688E3,1.7596719E3,1.0000195E4,0E0,6.319659E2,2.912843E2,0E0,1.7775E2,2.9960344E4,7.665489E3,1.8297525E4,2.9972855E4,1.0782281E4,1.3419314E4,8.897988E3,1.3456266E4,3.4730562E4,3.8093598E4,3.3823703E4,2.4904812E4,2.4643625E4,3.2923E4,9.639467E3,0E0,1.4169321E4,3.165E3,1.3217031E3,1.1764297E3,6.5315444E3,7.674251E3,0E0,4.897888E2,0E0,0E0,3.4375E1,3.487775E2,0E0,0E0,0E0,0E0,0E0,0E0,0E0,0E0,0E0,0E0,0E0,0E0,0E0,0E0,0E0,0E0,0E0,0E0,0E0,0E0,0E0,0E0,0E0,0E0,0E0,0E0,0E0,0E0,0E0,0E0,0E0,0E0,0E0,0E0,0E0,0E0,0E0,0E0,0E0,0E0,0E0,0E0,0E0,0E0,0E0,0E0,0E0,0E0],"parents":[2147483647,0,0,1,1,2,2,3,3,4,4,5,5,6,6,7,7,8,8,9,9,10,10,11,11,12,12,13,13,14,14,15,15,16,16,17,17,18,18,19,19,20,20,21,21,22,22,23,23,24,24,25,25,27,27,28,28,30,30,31,31,32,32,33,33,34,34,35,35,36,36,37,37,38,38,39,39,40,40,41,41,42,42,43,43,44,44,45,45,47,47,48,48,49,49,50,50,51,51,52,52,54,54,57,57,58,58],"right_children":[2,4,6,8,10,12,14,16,18,20,22,24,26,28,30,32,34,36,38,40,42,44,46,48,50,52,-1,54,56,-1,58,60,62,64,66,68,70,72,74,76,78,80,82,84,86,88,-1,90,92,94,96,98,100,-1,102,-1,-1,104,106,-1,-1,-1,-1,-1,-1,-1,-1,-1,-1,-1,-1,-1,-1,-1,-1,-1,-1,-1,-1,-1,-1,-1,-1,-1,-1,-1,-1,-1,-1,-1,-1,-1,-1,-1,-1,-1,-1,-1,-1,-1,-1,-1,-1,-1,-1,-1,-1],"split_conditions":[-7.9267895E-1,1.4238372E6,4.016455E3,2.455777E2,3.145E2,8.2E-1,-9.4220924E-1,6.6129036E1,3.0939017E2,-8.6855733E-1,2.498345E2,-5.3668606E-1,9.210526E1,6.7855346E-1,7.719962E-2,4.57E0,-8.650385E-1,8.9521384E-1,6.147915E2,8.731113E1,-2.2851299E-1,6.132714E2,5.8612613E4,-9.8936105E-1,6.786922E-1,-2.7783122E-3,3.3742032E0,2.5040688E1,4.1007617E-1,-4.991538E-2,1.7083086E6,7.6E-1,7.326519E4,9.350705E-1,7.9397285E1,6.9851364E1,-2.8873648E1,3.121E2,5.800415E1,-9.934461E-1,-8.8775146E-1,7.2789116E1,-2.5135636E-2,5.9783356E1,4.8477313E-1,2.8272373E4,2.2222192E0,-4.896501E-1,1.6562555E6,1.653837E3,6.7877084E-1,-6.9372183E-1,4.0688699E3,4.4021055E-1,-1.3424527E-2,-5.2446157E-1,-2.78756E-2,-6.438264E-1,7.8947365E1,1.3348168E0,7.831437E-1,5.567935E-1,-1.1407623E0,7.5878225E-2,6.823949E-1,6.700542E-1,2.9485726E0,5.059797E-1,1.9784471E-1,6.228466E-2,1.8566035E0,2.005999E-1,2.565243E0,5.8679336E-1,2.0840108E-1,1.9316647E0,1.1560317E0,-9.005375E-1,1.1144319E0,1.1266216E0,3.2577538E0,-1.2773791E-1,7.717748E-1,6.738996E-1,3.8922079E0,7.266418E-1,1.3919132E0,3.3250076E-1,-8.795218E-1,2.947369E0,-9.178015E-1,-2.8713024E-1,-1.1406914E0,5.562412E-1,-2.6558313E-1,-4.4096358E-2,-2.1886837E-1,1.8170575E0,-3.2641894E-1,3.0940912E0,3.683453E-1,-4.2624035E-1,1.8057015E-2,-5.1599663E-1,-4.2402932E-1,-3.6110982E-2,-4.8361808E-1],"split_indices":[36,1,45,41,7,12,23,20,31,14,47,36,20,13,36,16,23,18,49,48,43,26,11,23,13,14,0,28,3,0,1,12,15,13,48,48,47,7,0,21,21,20,43,34,43,15,0,3,1,31,13,3,2,0,14,0,0,38,20,0,0,0,0,0,0,0,0,0,0,0,0,0,0,0,0,0,0,0,0,0,0,0,0,0,0,0,0,0,0,0,0,0,0,0,0,0,0,0,0,0,0,0,0,0,0,0,0],"split_type":[0,0,0,0,0,0,0,0,0,0,0,0,0,0,0,0,0,0,0,0,0,0,0,0,0,0,0,0,0,0,0,0,0,0,0,0,0,0,0,0,0,0,0,0,0,0,0,0,0,0,0,0,0,0,0,0,0,0,0,0,0,0,0,0,0,0,0,0,0,0,0,0,0,0,0,0,0,0,0,0,0,0,0,0,0,0,0,0,0,0,0,0,0,0,0,0,0,0,0,0,0,0,0,0,0,0,0],"sum_hessian":[4.0907E4,1.3582E4,2.7325E4,5.127E3,8.455E3,1.3498E4,1.3827E4,2.024E3,3.103E3,2.262E3,6.193E3,1.3451E4,4.7E1,4.4E1,1.3783E4,1.455E3,5.69E2,1.879E3,1.224E3,1.35E3,9.12E2,6.118E3,7.5E1,5.711E3,7.74E3,4.4E1,3E0,2.8E1,1.6E1,5E0,1.3778E4,1.426E3,2.9E1,5E2,6.9E1,1.837E3,4.2E1,1.8E1,1.206E3,1.254E3,9.6E1,1.17E2,7.95E2,5.331E3,7.87E2,7.2E1,3E0,8E0,5.703E3,3.042E3,4.698E3,3.4E1,1E1,4E0,2.4E1,1.2E1,4E0,1.3761E4,1.7E1,3.2E2,1.106E3,9E0,2E1,2.7E2,2.3E2,4.9E1,2E1,3.51E2,1.486E3,1.8E1,2.4E1,6E0,1.2E1,8.84E2,3.22E2,1.69E2,1.085E3,3.8E1,5.8E1,9.4E1,2.3E1,8.6E1,7.09E2,5.326E3,5E0,4.78E2,3.09E2,2.4E1,4.8E1,3E0,5E0,5.693E3,1E1,4E0,3.038E3,9.9E1,4.599E3,3E0,3.1E1,4E0,6E0,1E1,1.4E1,3.1E1,1.373E4,1E1,7E0],"tree_param":{"num_deleted":"0","num_feature":"50","num_nodes":"107","size_leaf_vector":"1"}},{"base_weights":[3.564226E-2,1.3051722E1,-6.447031E0,1.1510452E1,1.7172981E1,-4.843491E0,-4.0295964E-1,1.7153206E1,1.0363831E1,1.1641055E1,1.97774E1,2.213291E0,-4.8575497E0,4.330852E0,1.8951803E1,1.1482323E1,5.336339E0,1.1090261E1,7.50751E1,4.7039864E1,1.920272E1,-4.885305E0,9.308186E0,1.5091125E1,-9.432033E0,2.0605972E1,1.8818173E0,2.1112236E1,1.0789543E1,1.1345406E1,3.2907543E0,8.13713E0,2.0568014E1,5.407734E-1,5.0527797E0,7.441069E0,7.450765E1,1.8939163E1,7.600561E1,-5.300325E0,-4.4480095E0,-3.9351232E0,3.4192884E0,1.9366277E0,2.8112867E-1,8.3892024E-1,-1.0981992E0,5.453773E-1,1.1802492E0,-4.8953006E-1,1.0078278E0,9.7469103E-1,3.4999568E0,8.511801E-1,4.9231783E-1,-1.9981223E-1,7.6352906E-1,3.7293668E0,1.5157378E-1,6.8247694E-1,1.2346251E-1,1.2768847E0,-3.9812505E-1,-1.2889763E0,2.1507175E0,4.5015883E0,-1.0549623E0,-3.6015043E-1,9.7329634E-1,4.283281E0,1.8829602E0,7.456912E-1,-2.6599386E-1,-9.784553E-2,-2.2647682E-1,1.2341287E0,-6.6306466E-1],"categories":[],"categories_nodes":[],"categories_segments":[],"categories_sizes":[],"default_left":[0,0,0,0,0,0,0,0,0,0,0,0,0,0,0,0,0,0,0,0,0,0,0,0,0,0,0,0,0,0,0,0,0,0,0,0,0,0,0,0,0,0,0,0,0,0,0,0,0,0,0,0,0,0,0,0,0,0,0,0,0,0,0,0,0,0,0,0,0,0,0,0,0,0,0,0,0],"id":13,"left_children":[1,3,5,7,9,11,-1,13,15,17,19,-1,21,23,25,27,29,31,33,35,37,39,41,43,45,47,49,51,53,55,57,59,61,-1,-1,63,65,67,69,71,73,75,-1,-1,-1,-1,-1,-1,-1,-1,-1,-1,-1,-1,-1,-1,-1,-1,-1,-1,-1,-1,-1,-1,-1,-1,-1,-1,-1,-1,-1,-1,-1,-1,-1,-1,-1],"loss_changes":[3.4379378E6,8.584325E4,7.0270875E4,6.362775E4,5.2858E4,9.6270625E3,0E0,3.8291156E4,4.604175E4,4.0456812E4,3.8320688E4,0E0,5.4059062E3,3.0649938E4,4.1156312E4,4.45075E4,1.8325531E4,3.2660922E4,1.559082E4,5.490964E4,3.52895E4,2.4452812E3,2.1399885E4,2.5744395E4,3.0259623E4,3.8423E4,2.7928732E4,3.4151062E4,3.6626E4,2.2885035E4,2.0396145E4,2.7959012E4,3.9622016E4,0E0,0E0,2.7109455E4,4.6432844E4,3.379725E4,8.362617E2,2.8359062E3,1.3375938E3,6.4647305E3,0E0,0E0,0E0,0E0,0E0,0E0,0E0,0E0,0E0,0E0,0E0,0E0,0E0,0E0,0E0,0E0,0E0,0E0,0E0,0E0,0E0,0E0,0E0,0E0,0E0,0E0,0E0,0E0,0E0,0E0,0E0,0E0,0E0,0E0,0E0],"parents":[2147483647,0,0,1,1,2,2,3,3,4,4,5,5,7,7,8,8,9,9,10,10,12,12,13,13,14,14,15,15,16,16,17,17,18,18,19,19,20,20,21,21,22,22,23,23,24,24,25,25,26,26,27,27,28,28,29,29,30,30,31,31,32,32,35,35,36,36,37,37,38,38,39,39,40,40,41,41],"right_children":[2,4,6,8,10,12,-1,14,16,18,20,-1,22,24,26,28,30,32,34,36,38,40,42,44,46,48,50,52,54,56,58,60,62,-1,-1,64,66,68,70,72,74,76,-1,-1,-1,-1,-1,-1,-1,-1,-1,-1,-1,-1,-1,-1,-1,-1,-1,-1,-1,-1,-1,-1,-1,-1,-1,-1,-1,-1,-1,-1,-1,-1,-1,-1,-1],"split_conditions":[7.375005E2,2.5057955E1,1E0,-9.913598E-1,-4E-1,-7.451787E-1,-4.0295964E-1,-6.172722E-1,8.82152E1,5.1353764E-2,-9.9386495E-1,2.213291E0,9.2E-1,7.6126265E-3,8.634674E1,-9.9190295E-1,-6.522877E-1,3.3163956E1,-6.031883E-1,8E-1,1.97E1,2.277191E3,1.179E1,3.09001E3,2.7220684E4,2.1735806E2,9.257842E1,1.228E1,-1.3043696E0,-1.718091E0,2.158E2,2.1113338E4,-1.2433978E0,5.407734E-1,5.0527797E0,1.3621658E-1,2.5996027E2,3.0071487E3,8.778689E1,-1.7188263E0,-9.624751E-1,3.809638E1,3.4192884E0,1.9366277E0,2.8112867E-1,8.3892024E-1,-1.0981992E0,5.453773E-1,1.1802492E0,-4.8953006E-1,1.0078278E0,9.7469103E-1,3.4999568E0,8.511801E-1,4.9231783E-1,-1.9981223E-1,7.6352906E-1,3.7293668E0,1.5157378E-1,6.8247694E-1,1.2346251E-1,1.2768847E0,-3.9812505E-1,-1.2889763E0,2.1507175E0,4.5015883E0,-1.0549623E0,-3.6015043E-1,9.7329634E-1,4.283281E0,1.8829602E0,7.456912E-1,-2.6599386E-1,-9.784553E-2,-2.2647682E-1,1.2341287E0,-6.6306466E-1],"split_indices":[33,34,8,5,10,38,0,42,48,27,5,0,12,27,28,23,18,34,3,12,16,33,16,24,19,41,20,16,18,35,24,15,35,0,0,3,0,15,0,35,14,20,0,0,0,0,0,0,0,0,0,0,0,0,0,0,0,0,0,0,0,0,0,0,0,0,0,0,0,0,0,0,0,0,0,0,0],"split_type":[0,0,0,0,0,0,0,0,0,0,0,0,0,0,0,0,0,0,0,0,0,0,0,0,0,0,0,0,0,0,0,0,0,0,0,0,0,0,0,0,0,0,0,0,0,0,0,0,0,0,0,0,0,0,0,0,0,0,0,0,0,0,0,0,0,0,0,0,0,0,0,0,0,0,0,0,0],"sum_hessian":[4.0742E4,1.3545E4,2.7197E4,9.861E3,3.684E3,1.3637E4,1.356E4,1.663E3,8.198E3,1.181E3,2.503E3,3E0,1.3634E4,2.05E2,1.458E3,6.705E3,1.493E3,1.172E3,9E0,5E1,2.453E3,1.3608E4,2.6E1,1.15E2,9E1,1.329E3,1.29E2,4.48E2,6.257E3,3.78E2,1.115E3,8.95E2,2.77E2,3E0,6E0,2.1E1,2.9E1,2.443E3,1E1,6.976E3,6.632E3,2.2E1,4E0,3.2E1,8.3E1,2.9E1,6.1E1,3.15E2,1.014E3,7.9E1,5E1,4.35E2,1.3E1,8.2E2,5.437E3,7.7E1,3.01E2,3E0,1.112E3,4.53E2,4.42E2,2.36E2,4.1E1,1.1E1,1E1,2.5E1,4E0,4.8E1,2.395E3,7E0,3E0,6E0,6.97E3,2.11E2,6.421E3,5E0,1.7E1],"tree_param":{"num_deleted":"0","num_feature":"50","num_nodes":"77","size_leaf_vector":"1"}},{"base_weights":[8.9867E-2,1.2401683E1,-6.1042647E0,9.357366E0,1.4230086E1,-4.5550103E0,-7.6403675E0,1.3721625E1,6.1446824E0,1.8797201E1,1.2249802E1,1.923937E1,-4.596888E0,-5.2379174E0,-7.655724E0,1.4017555E1,-1.13189535E1,9.712364E0,4.867651E0,4.3200893E0,1.8580082E1,9.339945E0,1.3915457E1,4.6029156E1,-6.9619217E0,-3.4205225E0,-4.826487E0,-5.628007E0,1.24959946E-1,-1.1233174E-1,-3.828573E-1,1.4428067E1,-4.292128E0,-1.9941257E1,2.0532017E0,1.389051E0,1.1943027E1,8.755713E0,3.2288055E0,-1.8987093E0,1.9135683E1,8.060417E0,1.6107061E1,1.1291968E1,1.6760683E1,3.8431008E0,1.3011111E1,-7.565853E-1,7.5890094E-1,-3.8103652E0,-2.0701396E0,-4.951536E0,-3.5844955E0,-1.5773306E0,-6.392342E0,3.7495798E-1,7.798306E-1,-5.1770216E-1,1.633912E0,-1.2643509E0,5.873932E-1,3.2639903E-1,-6.7300826E-1,1.921162E0,5.5171114E-1,-1.061345E-1,5.281493E-1,-2.9284915E-1,1.9290136E-1,1.5354866E0,-6.575828E-1,9.6766675E-1,-1.3888403E0,4.9921937E-2,4.9477908E-1,3.6992973E-1,1.3304819E0,4.838427E-1,1.0252209E0,4.763371E-1,9.3201256E-1,2.0342672E0,-8.945448E-1,-5.8743108E-2,-1.9932918E-1,-1.324641E-1,1.1000428E-1,-7.730882E-2,-2.4973248E-1,-2.0437942E-1,1.14816325E-2,-3.109522E-1,6.7771524E-2,-3.4532872E-1,1.993197E-2],"categories":[],"categories_nodes":[],"categories_segments":[],"categories_sizes":[],"default_left":[0,0,0,0,0,0,0,0,0,0,0,0,0,0,0,0,0,0,0,0,0,0,0,0,0,0,0,0,0,0,0,0,0,0,0,0,0,0,0,0,0,0,0,0,0,0,0,0,0,0,0,0,0,0,0,0,0,0,0,0,0,0,0,0,0,0,0,0,0,0,0,0,0,0,0,0,0,0,0,0,0,0,0,0,0,0,0,0,0,0,0,0,0,0,0],"id":14,"left_children":[1,3,5,7,9,11,13,15,17,19,21,23,25,27,29,31,33,35,37,-1,39,41,43,45,47,49,51,53,-1,-1,-1,55,57,59,-1,61,63,65,67,69,71,73,75,77,79,-1,81,-1,-1,83,85,87,89,91,93,-1,-1,-1,-1,-1,-1,-1,-1,-1,-1,-1,-1,-1,-1,-1,-1,-1,-1,-1,-1,-1,-1,-1,-1,-1,-1,-1,-1,-1,-1,-1,-1,-1,-1,-1,-1,-1,-1,-1,-1],"loss_changes":[3.119838E6,7.6083E4,6.4735438E4,7.199556E4,7.7121625E4,1.3592031E4,4.628125E2,1.6305906E4,1.345082E4,3.6327438E4,2.8798375E4,1.7170605E4,3.637E3,2.8601343E2,8.6125E1,1.6253125E4,1.2559969E4,1.4463945E4,1.388684E4,0E0,2.9370625E4,1.8709125E4,2.8127938E4,1.1207439E4,2.5810854E3,1.1565273E3,1.7391875E3,2.5538257E2,0E0,0E0,0E0,1.6940594E4,1.1093457E4,4.1946787E3,0E0,1.275448E4,1.4371258E4,1.2743434E4,8.815106E3,2.572106E4,2.6165438E4,2.3731547E4,3.1353883E4,2.9214672E4,2.4538344E4,0E0,6.716501E3,0E0,0E0,7.917539E2,1.2374612E3,1.5009219E3,1.9950205E3,2.1311137E2,2.5483789E2,0E0,0E0,0E0,0E0,0E0,0E0,0E0,0E0,0E0,0E0,0E0,0E0,0E0,0E0,0E0,0E0,0E0,0E0,0E0,0E0,0E0,0E0,0E0,0E0,0E0,0E0,0E0,0E0,0E0,0E0,0E0,0E0,0E0,0E0,0E0,0E0,0E0,0E0,0E0,0E0],"parents":[2147483647,0,0,1,1,2,2,3,3,4,4,5,5,6,6,7,7,8,8,9,9,10,10,11,11,12,12,13,13,14,14,15,15,16,16,17,17,18,18,20,20,21,21,22,22,23,23,24,24,25,25,26,26,27,27,31,31,32,32,33,33,35,35,36,36,37,37,38,38,39,39,40,40,41,41,42,42,43,43,44,44,46,46,49,49,50,50,51,51,52,52,53,53,54,54],"right_children":[2,4,6,8,10,12,14,16,18,20,22,24,26,28,30,32,34,36,38,-1,40,42,44,46,48,50,52,54,-1,-1,-1,56,58,60,-1,62,64,66,68,70,72,74,76,78,80,-1,82,-1,-1,84,86,88,90,92,94,-1,-1,-1,-1,-1,-1,-1,-1,-1,-1,-1,-1,-1,-1,-1,-1,-1,-1,-1,-1,-1,-1,-1,-1,-1,-1,-1,-1,-1,-1,-1,-1,-1,-1,-1,-1,-1,-1,-1,-1],"split_conditions":[7.3869E2,1.4125324E6,-6.119986E-1,2.495236E2,3.25E2,-7.417126E-1,-2.4465414E-2,1.3858061E6,7.141434E1,-3.2054205E2,-7.4415755E-1,6.765053E1,-1.3641934E6,2.4214483E1,-9.299467E-1,4.8E0,2.2348501E-1,-1.1416361E2,6.1761E3,4.3200893E0,-7.663358E-1,2.6496473E1,7.593369E3,3.4118872E-3,1.14775926E-1,9.250164E0,9.3961287E-1,2.9148178E-3,1.24959946E-1,-1.1233174E-1,-3.828573E-1,-7.6803E-1,2.3709235E2,1.5499595E-2,2.0532017E0,4.1757782E1,-4.5795584E2,-3.8976118E-1,-1.7180978E0,-9.9213904E-1,5.436676E2,6.7618036E-1,5.1043235E-2,2.6689203E4,-2.1188185E0,3.8431008E0,4.064565E0,-7.565853E-1,7.5890094E-1,-1.719005E0,7.17401E4,-6.767486E-1,2.72965E1,5.804017E0,1.4565445E6,3.7495798E-1,7.798306E-1,-5.1770216E-1,1.633912E0,-1.2643509E0,5.873932E-1,3.2639903E-1,-6.7300826E-1,1.921162E0,5.5171114E-1,-1.061345E-1,5.281493E-1,-2.9284915E-1,1.9290136E-1,1.5354866E0,-6.575828E-1,9.6766675E-1,-1.3888403E0,4.9921937E-2,4.9477908E-1,3.6992973E-1,1.3304819E0,4.838427E-1,1.0252209E0,4.763371E-1,9.3201256E-1,2.0342672E0,-8.945448E-1,-5.8743108E-2,-1.9932918E-1,-1.324641E-1,1.1000428E-1,-7.730882E-2,-2.4973248E-1,-2.0437942E-1,1.14816325E-2,-3.109522E-1,6.7771524E-2,-3.4532872E-1,1.993197E-2],"split_indices":[7,1,38,41,7,38,18,1,48,47,38,48,1,34,23,16,32,47,2,0,38,34,49,27,32,30,13,27,0,0,0,38,47,27,0,0,0,32,35,23,0,13,3,15,30,0,4,0,0,35,24,38,37,37,1,0,0,0,0,0,0,0,0,0,0,0,0,0,0,0,0,0,0,0,0,0,0,0,0,0,0,0,0,0,0,0,0,0,0,0,0,0,0,0,0],"split_type":[0,0,0,0,0,0,0,0,0,0,0,0,0,0,0,0,0,0,0,0,0,0,0,0,0,0,0,0,0,0,0,0,0,0,0,0,0,0,0,0,0,0,0,0,0,0,0,0,0,0,0,0,0,0,0,0,0,0,0,0,0,0,0,0,0,0,0,0,0,0,0,0,0,0,0,0,0,0,0,0,0,0,0,0,0,0,0,0,0,0,0,0,0,0,0],"sum_hessian":[4.0908E4,1.3692E4,2.7216E4,5.14E3,8.552E3,1.3552E4,1.3664E4,2.178E3,2.962E3,2.584E3,5.968E3,2.3E1,1.3529E4,8.9E1,1.3575E4,2.153E3,2.5E1,7.79E2,2.183E3,7E0,2.577E3,2.175E3,3.793E3,1.1E1,1.2E1,2.212E3,1.1317E4,8.5E1,4E0,4E0,1.3571E4,2.106E3,4.7E1,2.2E1,3E0,1.65E2,6.14E2,6.46E2,1.537E3,6.8E1,2.509E3,1.831E3,3.44E2,1.976E3,1.817E3,5E0,6E0,9E0,3E0,1.715E3,4.97E2,1.0279E4,1.038E3,1.4E1,7.1E1,3.05E2,1.801E3,4.1E1,6E0,1.9E1,3E0,1.23E2,4.2E1,1.9E1,5.95E2,9.2E1,5.54E2,9.9E1,1.438E3,1.7E1,5.1E1,2.498E3,1.1E1,3.78E2,1.453E3,1.89E2,1.55E2,1.683E3,2.93E2,3.76E2,1.441E3,3E0,3E0,1.08E2,1.607E3,4.38E2,5.9E1,1.29E2,1.015E4,9.17E2,1.21E2,5E0,9E0,6.6E1,5E0],"tree_param":{"num_deleted":"0","num_feature":"50","num_nodes":"95","size_leaf_vector":"1"}},{"base_weights":[-3.5369026E-3,1.1731312E1,-5.79939E0,1.2515812E1,5.939085E0,-4.3203573E0,-7.2585683E0,1.870573E1,1.1913675E1,4.3017535E0,1.7435528E1,-4.3558197E0,1.7759815E1,-2.4980993E0,-7.269806E0,2.4866056E1,1.084896E1,1.6214241E1,1.1005312E1,3.8734028E1,3.7551885E0,2.9491953E1,5.9060555E0,1.9358263E1,-4.371233E0,-1.5359015E1,3.7789078E1,4.5210247E0,-4.8355618E0,-7.2748666E0,-2.748607E0,2.3382404E1,6.394775E1,2.84839E1,5.304094E0,1.5050627E1,3.0225943E1,1.1204448E1,-1.1252444E1,7.667636E1,-1.2290025E0,4.157439E0,-1.2041149E0,5.9894222E1,1.7680103E1,2.1574768E1,-5.491148E0,3.4697244E0,-8.604464E-1,-4.8835125E0,-3.8340132E0,-4.7596407E-1,-1.0126933E0,1.5168175E0,3.6915185E0,4.1676337E-1,-1.152797E-1,-4.7876284E-1,-1.2685491E0,-7.26894E0,-9.119315E0,-5.840888E0,4.3682647E-1,1.2335228E0,-3.472244E-1,-1.5302588E-1,4.5480876E0,3.5090506E-1,2.3305597E0,2.1835808E-2,9.406563E-1,1.1823311E-1,8.111269E-1,1.7062172E0,-1.2707522E0,4.941135E-1,7.0504075E-1,6.843653E-2,-1.0306534E0,5.2368355E0,1.0894887E0,1.9693734E-1,3.9052277E0,4.283153E0,1.4920038E0,1.6357393E0,-1.6282831E-1,-4.2890438E-1,1.7249726E0,-1.2496235E0,2.6846787E-1,-8.445787E-1,-2.4275306E-1,-1.2104422E-1,-1.9875008E-1,-6.256253E-1,9.3496335E-1,-4.217681E-1,1.3734266E-1,-1.7986614E-1,-3.6364827E-1,-4.9597454E-1,-7.570956E-2,-4.1164276E-1,1.08612075E-1],"categories":[],"categories_nodes":[],"categories_segments":[],"categories_sizes":[],"default_left":[0,0,0,0,0,0,0,0,0,0,0,0,0,0,0,0,0,0,0,0,0,0,0,0,0,0,0,0,0,0,0,0,0,0,0,0,0,0,0,0,0,0,0,0,0,0,0,0,0,0,0,0,0,0,0,0,0,0,0,0,0,0,0,0,0,0,0,0,0,0,0,0,0,0,0,0,0,0,0,0,0,0,0,0,0,0,0,0,0,0,0,0,0,0,0,0,0,0,0,0,0,0,0,0,0],"id":15,"left_children":[1,3,5,7,9,11,13,15,17,19,21,23,25,27,29,31,33,35,37,39,41,43,45,47,49,51,53,55,57,59,61,63,65,67,69,71,73,75,77,79,-1,81,-1,83,85,87,89,-1,-1,91,93,-1,-1,95,-1,-1,-1,-1,97,99,101,103,-1,-1,-1,-1,-1,-1,-1,-1,-1,-1,-1,-1,-1,-1,-1,-1,-1,-1,-1,-1,-1,-1,-1,-1,-1,-1,-1,-1,-1,-1,-1,-1,-1,-1,-1,-1,-1,-1,-1,-1,-1,-1,-1],"loss_changes":[2.7819538E6,6.1372375E4,5.905825E4,4.4161E4,3.0322754E4,1.0725016E4,7.180625E2,5.0740562E4,4.2227625E4,2.6479861E4,2.7762121E4,5.0463594E3,1.5176252E4,5.7972906E2,2.935625E2,3.2706344E4,4.5314812E4,3.0371812E4,3.9866125E4,5.474016E4,1.5707646E4,3.412579E4,1.8692346E4,1.7666578E4,3.7152188E3,6.1481934E1,1.8182666E4,2.5416609E2,4.2633923E2,8.225E1,6.5449915E2,2.2438781E4,3.830058E4,4.2859484E4,2.333237E4,2.5947E4,3.2103297E4,3.3891125E4,9.481504E3,1.9267078E4,0E0,2.1920205E4,0E0,1.8342703E4,2.2773371E4,1.7446047E4,1.3055603E4,0E0,0E0,2.2878594E3,1.3104688E3,0E0,0E0,2.1630583E3,0E0,0E0,0E0,0E0,4.8418167E2,1.750625E2,2.272539E2,2.8682974E2,0E0,0E0,0E0,0E0,0E0,0E0,0E0,0E0,0E0,0E0,0E0,0E0,0E0,0E0,0E0,0E0,0E0,0E0,0E0,0E0,0E0,0E0,0E0,0E0,0E0,0E0,0E0,0E0,0E0,0E0,0E0,0E0,0E0,0E0,0E0,0E0,0E0,0E0,0E0,0E0,0E0,0E0,0E0],"parents":[2147483647,0,0,1,1,2,2,3,3,4,4,5,5,6,6,7,7,8,8,9,9,10,10,11,11,12,12,13,13,14,14,15,15,16,16,17,17,18,18,19,19,20,20,21,21,22,22,23,23,24,24,25,25,26,26,27,27,28,28,29,29,30,30,31,31,32,32,33,33,34,34,35,35,36,36,37,37,38,38,39,39,41,41,43,43,44,44,45,45,46,46,49,49,50,50,53,53,58,58,59,59,60,60,61,61],"right_children":[2,4,6,8,10,12,14,16,18,20,22,24,26,28,30,32,34,36,38,40,42,44,46,48,50,52,54,56,58,60,62,64,66,68,70,72,74,76,78,80,-1,82,-1,84,86,88,90,-1,-1,92,94,-1,-1,96,-1,-1,-1,-1,98,100,102,104,-1,-1,-1,-1,-1,-1,-1,-1,-1,-1,-1,-1,-1,-1,-1,-1,-1,-1,-1,-1,-1,-1,-1,-1,-1,-1,-1,-1,-1,-1,-1,-1,-1,-1,-1,-1,-1,-1,-1,-1,-1,-1,-1],"split_conditions":[7.5658984E2,8.882467E1,3.9336267E3,-9.924455E-1,-1.2440962E0,9.2E-1,-9.4184995E-1,7.394751E6,-9.9175847E-1,-9.930747E-1,-1.2428467E0,-9.923199E-1,1.4147494E-3,-1.7180095E0,6.6E-1,8.139531E0,6.8688503E-4,7.57E0,9.430244E-1,2.2500182E4,5.961952E2,-1.9430573E2,-1.0078064E-1,6.793458E-1,2.277191E3,3.8576674E0,3.891709E0,1.5987645E2,4.1865414E1,4.2E-1,1.0044364E-1,5.1414324E4,2.659444E2,-8.6916035E-1,-3.0282638E-3,-1.4582694E0,7.3631165E1,9.376891E-1,7.533476E1,3.6568457E-1,-1.2290025E0,6.0526E2,-1.2041149E0,1.23476945E-2,2.9E0,-9.9065244E-1,9.015637E1,3.4697244E0,-8.604464E-1,-7.1146345E-1,-6.7767954E-1,-4.7596407E-1,-1.0126933E0,1E0,3.6915185E0,4.1676337E-1,-1.152797E-1,-4.7876284E-1,-4.4714257E-1,-8.3689414E-2,3.0553537E1,8.154542E-1,4.3682647E-1,1.2335228E0,-3.472244E-1,-1.5302588E-1,4.5480876E0,3.5090506E-1,2.3305597E0,2.1835808E-2,9.406563E-1,1.1823311E-1,8.111269E-1,1.7062172E0,-1.2707522E0,4.941135E-1,7.0504075E-1,6.843653E-2,-1.0306534E0,5.2368355E0,1.0894887E0,1.9693734E-1,3.9052277E0,4.283153E0,1.4920038E0,1.6357393E0,-1.6282831E-1,-4.2890438E-1,1.7249726E0,-1.2496235E0,2.6846787E-1,-8.445787E-1,-2.4275306E-1,-1.2104422E-1,-1.9875008E-1,-6.256253E-1,9.3496335E-1,-4.217681E-1,1.3734266E-1,-1.7986614E-1,-3.6364827E-1,-4.9597454E-1,-7.570956E-2,-4.1164276E-1,1.08612075E-1],"split_indices":[45,48,29,21,35,12,21,1,23,5,35,23,27,35,12,4,27,16,13,15,31,0,32,13,33,4,4,0,28,12,32,11,45,5,14,30,22,13,48,37,0,29,0,27,16,14,48,0,0,38,38,0,0,12,0,0,0,0,43,18,34,17,0,0,0,0,0,0,0,0,0,0,0,0,0,0,0,0,0,0,0,0,0,0,0,0,0,0,0,0,0,0,0,0,0,0,0,0,0,0,0,0,0,0,0],"split_type":[0,0,0,0,0,0,0,0,0,0,0,0,0,0,0,0,0,0,0,0,0,0,0,0,0,0,0,0,0,0,0,0,0,0,0,0,0,0,0,0,0,0,0,0,0,0,0,0,0,0,0,0,0,0,0,0,0,0,0,0,0,0,0,0,0,0,0,0,0,0,0,0,0,0,0,0,0,0,0,0,0,0,0,0,0,0,0,0,0,0,0,0,0,0,0,0,0,0,0,0,0,0,0,0,0],"sum_hessian":[4.0901E4,1.3522E4,2.7379E4,1.1908E4,1.614E3,1.3599E4,1.378E4,1.053E3,1.0855E4,1.414E3,2E2,1.3578E4,2.1E1,3.3E1,1.3747E4,5.89E2,4.64E2,1.89E3,8.965E3,2.1E1,1.393E3,9.7E1,1.03E2,8E0,1.357E4,8E0,1.3E1,8E0,2.5E1,1.3731E4,1.6E1,5.69E2,2E1,1.1E2,3.54E2,1.747E3,1.43E2,8.886E3,7.9E1,1.3E1,8E0,1.374E3,1.9E1,2.6E1,7.1E1,4.3E1,6E1,3E0,5E0,6.942E3,6.628E3,5E0,3E0,7E0,6E0,5E0,3E0,1E1,1.5E1,1.3692E4,3.9E1,1.3E1,3E0,5.46E2,2.3E1,6E0,1.4E1,5.1E1,5.9E1,2.61E2,9.3E1,1.48E2,1.599E3,1.34E2,9E0,6.104E3,2.782E3,3.4E1,4.5E1,8E0,5E0,1.371E3,3E0,1.3E1,1.3E1,4.1E1,3E1,1.3E1,3E1,2.1E1,3.9E1,1.5E1,6.927E3,6.03E2,6.025E3,4E0,3E0,5E0,1E1,1.6E1,1.3676E4,3.5E1,4E0,1E1,3E0],"tree_param":{"num_deleted":"0","num_feature":"50","num_nodes":"105","size_leaf_vector":"1"}},{"base_weights":[1.3766333E-1,1.145923E1,-5.5096173E0,8.373708E0,1.3318498E1,-4.1254597E0,-3.4553707E-1,1.2902038E1,4.860957E0,1.7222408E1,1.0653868E1,3.422512E0,-4.1463466E0,-5.837802E0,1.3610153E1,7.950762E0,3.0873458E0,1.4461949E1,2.0667513E1,1.894613E1,1.00369425E1,1.7309206E1,-4.1774025E0,4.6174335E1,-1.05528965E1,1.5247028E1,7.53918E0,6.5308285E0,1.6838463E1,4.3008312E1,2.822525E0,1.7619896E1,8.608416E0,2.2869041E1,8.088681E0,2.5400888E1,-4.4880176E0,-1.5477491E1,1.0220888E1,4.3518763E0,3.4012775E0,9.689295E0,-4.192317E0,3.4891477E0,5.4985666E-1,1.7070588E0,-7.0913184E-1,6.4118546E-1,1.08793E0,-5.7246864E-1,5.0764215E-1,1.3266519E0,2.9785025E-1,1.7184852E0,3.4269562E-1,2.7694058E0,2.1883357E-1,1.0838194E0,1.1988391E-1,7.3704684E-1,1.9230298E0,3.7951013E-1,2.9816222E0,1.0131693E0,1.6942185E0,3.8370793E0,2.7889085E-1,6.0587823E-1,1.6688576E0,2.231019E0,-5.4615647E-1,-1.2897843E0,1.847835E0,7.068376E-1,4.488597E-1,2.0109432E0,-6.967971E-1,1.5917451E0,-6.8274873E-1,-2.193173E-1,-1.708415E-1],"categories":[],"categories_nodes":[],"categories_segments":[],"categories_sizes":[],"default_left":[0,0,0,0,0,0,0,0,0,0,0,0,0,0,0,0,0,0,0,0,0,0,0,0,0,0,0,0,0,0,0,0,0,0,0,0,0,0,0,0,0,0,0,0,0,0,0,0,0,0,0,0,0,0,0,0,0,0,0,0,0,0,0,0,0,0,0,0,0,0,0,0,0,0,0,0,0,0,0,0,0],"id":16,"left_children":[1,3,5,7,9,11,-1,13,15,17,19,-1,21,23,25,27,29,31,33,35,37,39,41,43,45,47,49,51,53,55,57,59,61,63,65,67,69,71,73,75,-1,77,79,-1,-1,-1,-1,-1,-1,-1,-1,-1,-1,-1,-1,-1,-1,-1,-1,-1,-1,-1,-1,-1,-1,-1,-1,-1,-1,-1,-1,-1,-1,-1,-1,-1,-1,-1,-1,-1,-1],"loss_changes":[2.611021E6,7.7855375E4,5.2812625E4,8.126744E4,8.8016375E4,2.1058734E4,0E0,2.9712125E4,1.5762547E4,3.2393125E4,2.5600312E4,0E0,9.203641E3,2.0593566E4,2.1268094E4,1.3138625E4,1.9241762E4,3.5189312E4,4.2098625E4,5.275518E4,2.2192594E4,1.2839691E4,2.8707031E3,5.0379053E3,1.2811533E4,2.6448188E4,2.2896133E4,1.0249004E4,2.4966305E4,5.490633E3,1.4531836E4,7.3887125E4,3.44533E4,3.6592125E4,3.9038312E4,2.8515703E4,2.4501393E4,1.9347098E4,2.2575344E4,1.1713908E4,0E0,8.191118E3,2.0415625E3,0E0,0E0,0E0,0E0,0E0,0E0,0E0,0E0,0E0,0E0,0E0,0E0,0E0,0E0,0E0,0E0,0E0,0E0,0E0,0E0,0E0,0E0,0E0,0E0,0E0,0E0,0E0,0E0,0E0,0E0,0E0,0E0,0E0,0E0,0E0,0E0,0E0,0E0],"parents":[2147483647,0,0,1,1,2,2,3,3,4,4,5,5,7,7,8,8,9,9,10,10,12,12,13,13,14,14,15,15,16,16,17,17,18,18,19,19,20,20,21,21,22,22,23,23,24,24,25,25,26,26,27,27,28,28,29,29,30,30,31,31,32,32,33,33,34,34,35,35,36,36,37,37,38,38,39,39,41,41,42,42],"right_children":[2,4,6,8,10,12,-1,14,16,18,20,-1,22,24,26,28,30,32,34,36,38,40,42,44,46,48,50,52,54,56,58,60,62,64,66,68,70,72,74,76,-1,78,80,-1,-1,-1,-1,-1,-1,-1,-1,-1,-1,-1,-1,-1,-1,-1,-1,-1,-1,-1,-1,-1,-1,-1,-1,-1,-1,-1,-1,-1,-1,-1,-1,-1,-1,-1,-1,-1,-1],"split_conditions":[7.375005E2,1.4091658E6,1E0,2.537E2,1.2994939E7,-7.451787E-1,-3.4553707E-1,-4.4714257E-1,6.9537026E3,9.370522E-1,-9.9175847E-1,3.422512E0,-6.829917E-1,-9.91862E-1,7.381625E1,-1.2451478E0,-5.1445526E2,-1.7180289E0,1.2199943E2,6.0489243E1,7.1482463E0,1.5893085E-1,-7.417126E-1,4.2787023E-2,7.470959E-1,2.1968046E1,-1.22501105E-1,9.810114E0,-1.2449769E0,3.4E0,1.0035316E3,1.7323145E4,9.760195E1,7.542425E1,9.357048E-1,1.1787222E-2,-7.4352396E-1,-8.276404E-1,-2.6897746E-1,-1.19687244E-1,3.4012775E0,3.809638E1,9.3882006E-1,3.4891477E0,5.4985666E-1,1.7070588E0,-7.0913184E-1,6.4118546E-1,1.08793E0,-5.7246864E-1,5.0764215E-1,1.3266519E0,2.9785025E-1,1.7184852E0,3.4269562E-1,2.7694058E0,2.1883357E-1,1.0838194E0,1.1988391E-1,7.3704684E-1,1.9230298E0,3.7951013E-1,2.9816222E0,1.0131693E0,1.6942185E0,3.8370793E0,2.7889085E-1,6.0587823E-1,1.6688576E0,2.231019E0,-5.4615647E-1,-1.2897843E0,1.847835E0,7.068376E-1,4.488597E-1,2.0109432E0,-6.967971E-1,1.5917451E0,-6.8274873E-1,-2.193173E-1,-1.708415E-1],"split_indices":[33,1,8,7,1,38,0,43,2,13,23,0,18,5,20,35,0,35,47,22,28,3,38,3,4,47,3,28,35,16,49,2,20,20,34,43,38,36,3,32,0,20,13,0,0,0,0,0,0,0,0,0,0,0,0,0,0,0,0,0,0,0,0,0,0,0,0,0,0,0,0,0,0,0,0,0,0,0,0,0,0],"split_type":[0,0,0,0,0,0,0,0,0,0,0,0,0,0,0,0,0,0,0,0,0,0,0,0,0,0,0,0,0,0,0,0,0,0,0,0,0,0,0,0,0,0,0,0,0,0,0,0,0,0,0,0,0,0,0,0,0,0,0,0,0,0,0,0,0,0,0,0,0,0,0,0,0,0,0,0,0,0,0,0,0],"sum_hessian":[4.0836E4,1.359E4,2.7246E4,5.112E3,8.478E3,1.3708E4,1.3538E4,2.232E3,2.88E3,3.437E3,5.041E3,3E0,1.3705E4,8.1E1,2.151E3,1.049E3,1.831E3,1.911E3,1.526E3,3.47E2,4.694E3,1.9E1,1.3686E4,6E0,7.5E1,1.693E3,4.58E2,9.06E2,1.43E2,1.1E1,1.82E3,1.24E3,6.71E2,1.298E3,2.28E2,2.72E2,7.5E1,3.3E1,4.661E3,1.6E1,3E0,1.4E1,1.3672E4,3E0,3E0,5E0,7E1,1.236E3,4.57E2,5.5E1,4.03E2,2.4E1,8.82E2,5.1E1,9.2E1,8E0,3E0,3.9E1,1.781E3,1.091E3,1.49E2,6.59E2,1.2E1,1.052E3,2.46E2,7E0,2.21E2,1.03E2,1.69E2,8E0,6.7E1,2.8E1,5E0,1.121E3,3.54E3,5E0,1.1E1,7E0,7E0,1.0932E4,2.74E3],"tree_param":{"num_deleted":"0","num_feature":"50","num_nodes":"81","size_leaf_vector":"1"}},{"base_weights":[2.0704197E-3,1.05487995E1,-5.2474236E0,9.094412E0,1.3669634E1,-3.9509308E0,-3.2811782E-1,2.021065E1,8.679955E0,2.1149338E1,1.1889402E1,-3.9624476E0,1.8205175E0,3.4678972E0,2.9227354E1,9.552446E0,3.7067056E0,1.5849467E1,3.0667305E1,2.333812E1,1.0839287E1,-3.07622E0,-4.213339E0,4.8025276E1,-6.213266E0,-9.710331E0,3.6595818E1,1.2597893E1,8.397279E0,1.6030392E1,2.5269902E0,4.844123E1,1.3029094E1,-8.444188E0,3.615784E1,2.8896984E1,4.320467E0,4.531882E1,1.0563044E1,-7.828746E-1,-3.2889845E0,-4.2293396E0,9.211173E0,-1.2666197E0,3.9531918E0,-5.621473E-1,3.0022945E0,-8.005416E-1,2.1548133E0,1.3696165E0,2.8590152E0,2.3625696E0,6.033835E-1,3.6433455E-1,6.71699E-1,9.2910355E-1,-6.4328134E-1,-1.1052855E0,1.4789176E-1,3.5171933E0,1.1592064E0,8.3906835E-1,-4.170444E-1,1.7248974E0,-1.5220165E0,3.012441E-1,2.2145884E0,5.6650335E-1,1.9740486E0,-3.0818158E-1,1.5568138E0,-1.0565411E0,2.7672586E0,-5.682097E-1,5.517246E-1,-1.312341E-1,1.2019272E-1,-6.312781E-2,-1.726186E-1,-8.1288064E-1,-2.1076827E-1,2.024789E0,-7.6955897E-1],"categories":[],"categories_nodes":[],"categories_segments":[],"categories_sizes":[],"default_left":[0,0,0,0,0,0,0,0,0,0,0,0,0,0,0,0,0,0,0,0,0,0,0,0,0,0,0,0,0,0,0,0,0,0,0,0,0,0,0,0,0,0,0,0,0,0,0,0,0,0,0,0,0,0,0,0,0,0,0,0,0,0,0,0,0,0,0,0,0,0,0,0,0,0,0,0,0,0,0,0,0,0,0],"id":17,"left_children":[1,3,5,7,9,11,-1,13,15,17,19,21,-1,23,25,27,29,31,33,35,37,39,41,43,45,47,49,51,53,55,57,59,61,63,65,67,69,71,73,75,77,79,81,-1,-1,-1,-1,-1,-1,-1,-1,-1,-1,-1,-1,-1,-1,-1,-1,-1,-1,-1,-1,-1,-1,-1,-1,-1,-1,-1,-1,-1,-1,-1,-1,-1,-1,-1,-1,-1,-1,-1,-1],"loss_changes":[2.253577E6,6.1271E4,4.6304312E4,4.2346188E4,5.697575E4,6.5031406E3,0E0,4.986461E4,3.8581438E4,4.1125562E4,4.1509656E4,3.0289062E3,0E0,5.0772543E4,6.204386E4,2.6526875E4,1.9293764E4,4.826464E4,6.34425E4,3.063536E4,2.9842438E4,1.4720664E3,2.3286406E3,4.9823492E4,3.299666E4,1.233208E4,3.2715547E4,3.7641906E4,3.0620625E4,8.792717E3,1.2958114E4,2.1594062E4,3.9512133E4,3.5998492E4,6.296375E4,4.138139E4,1.9030764E4,1.7829098E4,3.2792062E4,1.5206211E3,9.1097266E2,1.7195156E3,1.0631563E4,0E0,0E0,0E0,0E0,0E0,0E0,0E0,0E0,0E0,0E0,0E0,0E0,0E0,0E0,0E0,0E0,0E0,0E0,0E0,0E0,0E0,0E0,0E0,0E0,0E0,0E0,0E0,0E0,0E0,0E0,0E0,0E0,0E0,0E0,0E0,0E0,0E0,0E0,0E0,0E0],"parents":[2147483647,0,0,1,1,2,2,3,3,4,4,5,5,7,7,8,8,9,9,10,10,11,11,13,13,14,14,15,15,16,16,17,17,18,18,19,19,20,20,21,21,22,22,23,23,24,24,25,25,26,26,27,27,28,28,29,29,30,30,31,31,32,32,33,33,34,34,35,35,36,36,37,37,38,38,39,39,40,40,41,41,42,42],"right_children":[2,4,6,8,10,12,-1,14,16,18,20,22,-1,24,26,28,30,32,34,36,38,40,42,44,46,48,50,52,54,56,58,60,62,64,66,68,70,72,74,76,78,80,82,-1,-1,-1,-1,-1,-1,-1,-1,-1,-1,-1,-1,-1,-1,-1,-1,-1,-1,-1,-1,-1,-1,-1,-1,-1,-1,-1,-1,-1,-1,-1,-1,-1,-1,-1,-1,-1,-1,-1,-1],"split_conditions":[7.3869E2,-1.2445238E0,1.6825836E4,-9.930747E-1,2.737E2,1.2652593E0,-3.2811782E-1,6.932058E1,8.882467E1,2.8763085E6,-9.922214E-1,-1.1049144E6,1.8205175E0,4.4906864E1,1.4503193E0,2.434E2,-1.195224E2,1.1481127E4,2.609E2,5.302168E-1,-3.2751703E0,-9.609687E-1,3.6376262E-1,1.9392899E0,2.04E0,8.784377E1,9.8E-1,-5.399079E2,2.6671816E1,3.6363636E1,-9.926802E-1,2.9232928E-3,1.2043011E2,4.5214996E0,4.5040707E1,-4E-1,1.599457E0,-2.0701778E-1,-7.86E0,4.7661915E0,-1.7189503E0,-9.9189454E-1,1.035425E1,-1.2666197E0,3.9531918E0,-5.621473E-1,3.0022945E0,-8.005416E-1,2.1548133E0,1.3696165E0,2.8590152E0,2.3625696E0,6.033835E-1,3.6433455E-1,6.71699E-1,9.2910355E-1,-6.4328134E-1,-1.1052855E0,1.4789176E-1,3.5171933E0,1.1592064E0,8.3906835E-1,-4.170444E-1,1.7248974E0,-1.5220165E0,3.012441E-1,2.2145884E0,5.6650335E-1,1.9740486E0,-3.0818158E-1,1.5568138E0,-1.0565411E0,2.7672586E0,-5.682097E-1,5.517246E-1,-1.312341E-1,1.2019272E-1,-6.312781E-2,-1.726186E-1,-8.1288064E-1,-2.1076827E-1,2.024789E0,-7.6955897E-1],"split_indices":[7,35,33,5,40,18,0,48,48,1,21,1,0,22,6,7,47,19,24,18,42,14,18,6,10,48,12,0,34,20,21,3,47,34,22,10,17,32,10,30,35,14,34,0,0,0,0,0,0,0,0,0,0,0,0,0,0,0,0,0,0,0,0,0,0,0,0,0,0,0,0,0,0,0,0,0,0,0,0,0,0,0,0],"split_type":[0,0,0,0,0,0,0,0,0,0,0,0,0,0,0,0,0,0,0,0,0,0,0,0,0,0,0,0,0,0,0,0,0,0,0,0,0,0,0,0,0,0,0,0,0,0,0,0,0,0,0,0,0,0,0,0,0,0,0,0,0,0,0,0,0,0,0,0,0,0,0,0,0,0,0,0,0,0,0,0,0,0,0],"sum_hessian":[4.0702E4,1.3526E4,2.7176E4,9.229E3,4.297E3,1.3686E4,1.349E4,3.3E2,8.899E3,8.24E2,3.473E3,1.3683E4,3E0,1.16E2,2.14E2,7.57E3,1.329E3,5.31E2,2.93E2,2.9E2,3.183E3,3.022E3,1.0661E4,2E1,9.6E1,3.4E1,1.8E2,2.079E3,5.491E3,1.15E2,1.214E3,4.1E1,4.9E2,3.6E1,2.57E2,2.24E2,6.6E1,2.4E1,3.159E3,2.57E2,2.765E3,1.0649E4,1.2E1,6E0,1.4E1,9E1,6E0,3.1E1,3E0,1.26E2,5.4E1,3E1,2.049E3,4.501E3,9.9E2,1.06E2,9E0,2E1,1.194E3,2.1E1,2E1,4.17E2,7.3E1,1.2E1,2.4E1,5.5E1,2.02E2,8.5E1,1.39E2,4.8E1,1.8E1,3E0,2.1E1,6.6E1,3.093E3,1.63E2,9.4E1,2.07E2,2.558E3,1.1E1,1.0638E4,5E0,7E0],"tree_param":{"num_deleted":"0","num_feature":"50","num_nodes":"83","size_leaf_vector":"1"}},{"base_weights":[-6.397497E-2,9.761924E0,-4.979264E0,8.576208E0,1.2919281E1,-3.7276638E0,-3.118737E-1,1.03769865E1,5.8789687E0,9.339912E0,1.5283773E1,-3.764289E0,1.0674454E1,1.5307816E1,9.537637E0,3.1805022E0,9.435199E0,3.3513153E1,8.561697E0,4.1473133E1,1.4643527E1,-2.155799E0,-3.8863409E0,-1.840133E-1,3.160219E0,1.6909142E1,-1.6470774E1,9.157161E0,2.3445232E1,4.193771E1,2.8860812E0,3.519736E1,8.987219E0,1.7978004E1,9.5371216E1,-2.896871E0,9.895378E0,1.5289133E1,6.807232E1,1.3215524E1,2.4347195E1,-2.3144665E0,5.869078E0,-3.8751338E0,-8.2259226E-1,-6.1298084E0,1.9985554E0,6.9521135E-1,1.4843287E0,-1.3334845E0,2.912447E-1,4.5213825E-1,2.7782302E0,2.729576E0,1.0029173E-1,4.425408E-1,2.7489007E0,2.3977013E-1,-1.23915076E-1,-2.772158E-1,2.846871E0,4.7695157E-1,-5.0372404E-1,2.2514572E0,-7.287441E-1,2.431513E0,5.5309997E0,-7.058939E-1,6.2878567E-1,1.1978831E0,4.3085918E-1,1.682668E0,-1.3603969E0,3.998975E0,7.5175756E-1,7.982127E-1,4.3695346E-1,1.9979035E0,8.8398856E-1,-4.2117867E-3,-1.4148937E-1,4.5451114E-1,-4.228885E-1,7.536227E-1,-1.9426468E-1,8.833076E-1,-6.1727667E-1],"categories":[],"categories_nodes":[],"categories_segments":[],"categories_sizes":[],"default_left":[0,0,0,0,0,0,0,0,0,0,0,0,0,0,0,0,0,0,0,0,0,0,0,0,0,0,0,0,0,0,0,0,0,0,0,0,0,0,0,0,0,0,0,0,0,0,0,0,0,0,0,0,0,0,0,0,0,0,0,0,0,0,0,0,0,0,0,0,0,0,0,0,0,0,0,0,0,0,0,0,0,0,0,0,0,0,0],"id":18,"left_children":[1,3,5,7,9,11,-1,13,15,17,19,21,23,25,27,29,31,33,35,37,39,41,43,45,-1,47,49,51,53,55,57,59,61,63,65,67,69,71,73,75,77,79,81,83,-1,85,-1,-1,-1,-1,-1,-1,-1,-1,-1,-1,-1,-1,-1,-1,-1,-1,-1,-1,-1,-1,-1,-1,-1,-1,-1,-1,-1,-1,-1,-1,-1,-1,-1,-1,-1,-1,-1,-1,-1,-1,-1],"loss_changes":[1.9794576E6,5.1048875E4,4.2997125E4,4.8207438E4,3.141475E4,7.2649062E3,0E0,2.4509875E4,3.817189E4,2.7663484E4,3.7013656E4,2.6735156E3,1.998174E4,4.4296594E4,2.6737E4,2.5720256E4,1.9495031E4,4.2478902E4,2.2050836E4,3.5863977E4,3.004875E4,1.2432241E3,1.7225312E3,7.404255E3,0E0,3.1220422E4,9.707882E3,2.5822875E4,9.003213E4,6.8418906E3,2.3047121E4,2.6006879E4,1.7861719E4,3.412186E4,1.01927344E3,2.6394008E4,2.2995148E4,2.2768205E4,1.5207586E4,2.3396656E4,2.843139E4,1.0889912E3,9.537744E2,2.5001406E3,0E0,4.211113E3,0E0,0E0,0E0,0E0,0E0,0E0,0E0,0E0,0E0,0E0,0E0,0E0,0E0,0E0,0E0,0E0,0E0,0E0,0E0,0E0,0E0,0E0,0E0,0E0,0E0,0E0,0E0,0E0,0E0,0E0,0E0,0E0,0E0,0E0,0E0,0E0,0E0,0E0,0E0,0E0,0E0],"parents":[2147483647,0,0,1,1,2,2,3,3,4,4,5,5,7,7,8,8,9,9,10,10,11,11,12,12,13,13,14,14,15,15,16,16,17,17,18,18,19,19,20,20,21,21,22,22,23,23,25,25,26,26,27,27,28,28,29,29,30,30,31,31,32,32,33,33,34,34,35,35,36,36,37,37,38,38,39,39,40,40,41,41,42,42,43,43,45,45],"right_children":[2,4,6,8,10,12,-1,14,16,18,20,22,24,26,28,30,32,34,36,38,40,42,44,46,-1,48,50,52,54,56,58,60,62,64,66,68,70,72,74,76,78,80,82,84,-1,86,-1,-1,-1,-1,-1,-1,-1,-1,-1,-1,-1,-1,-1,-1,-1,-1,-1,-1,-1,-1,-1,-1,-1,-1,-1,-1,-1,-1,-1,-1,-1,-1,-1,-1,-1,-1,-1,-1,-1,-1,-1],"split_conditions":[7.375005E2,2.5057955E1,1E0,8.50235E0,-7.312756E-2,9.2E-1,-3.118737E-1,-1.3043696E0,-7.400415E-1,-9.938595E-1,-1.8182306E2,-1.9721125E6,1.179E1,9.0618336E-1,1.2652593E0,1.9012938E1,-2.2299525E2,6.0850864E1,1.0215054E1,1.03409566E-1,4.803074E-3,7.17401E4,3.899368E-1,6.3393337E-1,3.160219E0,2.9080904E-1,-1.7125727E0,1.4308527E5,7.511108E1,-3.5468525E-1,1.242921E4,5.782869E1,1.078E1,-6.71291E-1,1.8756465E0,-7.4136156E-1,-4.1153187E-1,-3.255841E-1,-3.0907279E-2,6.3878998E1,-9.919818E-1,2.3550564E3,3.744E1,7.3869E2,-8.2259226E-1,-1.3430969E0,1.9985554E0,6.9521135E-1,1.4843287E0,-1.3334845E0,2.912447E-1,4.5213825E-1,2.7782302E0,2.729576E0,1.0029173E-1,4.425408E-1,2.7489007E0,2.3977013E-1,-1.23915076E-1,-2.772158E-1,2.846871E0,4.7695157E-1,-5.0372404E-1,2.2514572E0,-7.287441E-1,2.431513E0,5.5309997E0,-7.058939E-1,6.2878567E-1,1.1978831E0,4.3085918E-1,1.682668E0,-1.3603969E0,3.998975E0,7.5175756E-1,7.982127E-1,4.3695346E-1,1.9979035E0,8.8398856E-1,-4.2117867E-3,-1.4148937E-1,4.5451114E-1,-4.228885E-1,7.536227E-1,-1.9426468E-1,8.833076E-1,-6.1727667E-1],"split_indices":[33,34,8,34,3,12,0,18,38,21,47,1,16,3,18,22,47,22,20,18,5,24,18,42,0,3,35,2,48,32,2,48,16,17,4,38,32,18,14,47,23,29,16,7,0,42,0,0,0,0,0,0,0,0,0,0,0,0,0,0,0,0,0,0,0,0,0,0,0,0,0,0,0,0,0,0,0,0,0,0,0,0,0,0,0,0,0],"split_type":[0,0,0,0,0,0,0,0,0,0,0,0,0,0,0,0,0,0,0,0,0,0,0,0,0,0,0,0,0,0,0,0,0,0,0,0,0,0,0,0,0,0,0,0,0,0,0,0,0,0,0,0,0,0,0,0,0,0,0,0,0,0,0,0,0,0,0,0,0,0,0,0,0,0,0,0,0,0,0,0,0,0,0,0,0,0,0],"sum_hessian":[4.0983E4,1.3665E4,2.7318E4,9.937E3,3.728E3,1.3697E4,1.3621E4,5.957E3,3.98E3,1.485E3,2.243E3,1.3663E4,3.4E1,8.64E2,5.093E3,2.264E3,1.716E3,4.5E1,1.44E3,5.2E1,2.191E3,9.65E2,1.2698E4,2.9E1,5E0,8.23E2,4.1E1,4.959E3,1.34E2,1.6E1,2.248E3,2.8E1,1.688E3,3.7E1,8E0,1.5E2,1.29E3,2.7E1,2.5E1,1.912E3,2.79E2,9.47E2,1.8E1,1.2688E4,1E1,2.6E1,3E0,6.68E2,1.55E2,2.8E1,1.3E1,4.948E3,1.1E1,5.4E1,8E1,5E0,1.1E1,1.658E3,5.9E2,1E1,1.8E1,1.641E3,4.7E1,2E1,1.7E1,3E0,5E0,8.7E1,6.3E1,1.06E2,1.184E3,1.9E1,8E0,2E1,5E0,1.183E3,7.29E2,8.2E1,1.97E2,1.78E2,7.69E2,1.5E1,3E0,6E0,1.2682E4,5E0,2.1E1],"tree_param":{"num_deleted":"0","num_feature":"50","num_nodes":"87","size_leaf_vector":"1"}},{"base_weights":[-6.5587754E-3,9.426487E0,-4.6855907E0,7.974308E0,1.273671E1,-3.4449704E0,-5.9150023E0,1.2269777E1,6.905778E0,1.939606E1,1.1109637E1,2.1245058E1,-3.490227E0,1.6628748E-1,-5.918624E0,-1.4346379E1,